{"learner":{"attributes":{},"feature_names":[],"feature_types":[],"gradient_booster":{"model":{"gbtree_model_param":{"num_parallel_tree":"1","num_trees":"15"},"iteration_indptr":[0,1,2,3,4,5,6,7,8,9,10,11,12,13,14,15],"tree_info":[0,0,0,0,0,0,0,0,0,0,0,0,0,0,0],"trees":[{"base_weights":[3.7921095E-7,-4.31099E0,1.4842963E1,-7.6382227E0,5.2532786E-1,3.8494081E0,1.7764492E1,-1.1082302E1,-6.229E0,-4.5195103E0,2.4406595E0,-7.8211117E-1,7.4621687E0,1.9390657E1,1.6487334E0,-7.508324E0,-1.2675255E1,-7.4258857E0,-3.460746E0,-1.0640114E1,-2.6024342E0,1.2627286E0,7.191102E0,-4.835866E0,3.6287277E0,-4.0945263E0,9.864101E0,2.1341524E1,3.242694E0,-2.2607255E0,1.0313226E1,2.183686E0,-7.9204936E0,-1.5066325E1,-9.998821E0,-7.6251397E0,4.0619545E0,-5.724998E0,1.7481651E0,-1.386429E1,-3.5314045E0,5.102224E0,-4.0943646E0,-2.522265E-1,8.124007E0,-1.8267463E0,1.2229503E1,3.6881993E0,-8.323894E0,5.8163548E0,-8.869174E0,-5.546449E0,2.2625011E1,1.4087395E1,5.542144E0,1.799354E1,2.5112747E1,1.0282989E1,-1.5202764E-1,-7.3064246E0,4.7679353E0,1.4893382E1,2.2341945E0,1.2574766E0,-6.435935E0,4.182295E0,-2.4088979E0,-4.305644E0,-5.9242067E0,-3.2786806E0,6.363232E-1,-2.2373784E0,-4.1874585E0,6.205082E0,3.8350895E-1,-1.8613192E0,2.2127717E0,1.4410548E0,-1.7194742E0,-4.9855456E0,-6.989806E-1,1.150179E1,-1.5393609E0,2.6058273E0,-2.883193E0,-1.8796397E0,5.734266E-1,-8.374002E-3,-5.1958666E0,2.6146567E0,-5.19119E0,-9.621757E-1,3.7987843E0,4.229284E0,2.4716766E-1,7.103129E0,1.594928E-2,-3.2071943E0,4.3196398E-1,2.1208193E0,-5.6994762E0,6.945836E0,-3.2987769E0,-4.2330093E0,-5.064593E-1,9.182295E0,-3.7906232E0,3.851587E0,1.1080082E1,6.889117E0,1.0862935E0,6.0133567E0,3.0054085E0,5.8939304E0,8.262076E0,5.9951077E0,1.3762658E0,-5.694658E-1,4.3793445E0,-2.8734748E0,5.919445E-1,-7.982951E0,2.2408273E0,3.6697447E0,9.550525E0,-2.6646516E0,4.364187E0],"categories":[],"categories_nodes":[],"categories_segments":[],"categories_sizes":[],"default_left":[0,0,0,0,0,0,0,0,0,0,0,0,0,0,0,0,0,0,0,0,0,0,0,0,0,0,0,0,0,0,0,0,0,0,0,0,0,0,0,0,0,0,0,0,0,0,0,0,0,0,0,0,0,0,0,0,0,0,0,0,0,0,0,0,0,0,0,0,0,0,0,0,0,0,0,0,0,0,0,0,0,0,0,0,0,0,0,0,0,0,0,0,0,0,0,0,0,0,0,0,0,0,0,0,0,0,0,0,0,0,0,0,0,0,0,0,0,0,0,0,0,0,0,0,0,0,0],"id":0,"left_children":[1,3,5,7,9,11,13,15,17,19,21,23,25,27,29,31,33,35,37,39,41,43,45,47,49,51,53,55,57,59,61,63,65,67,69,71,73,75,77,79,81,83,85,87,89,91,93,95,97,99,101,103,105,107,109,111,113,115,117,119,121,123,125,-1,-1,-1,-1,-1,-1,-1,-1,-1,-1,-1,-1,-1,-1,-1,-1,-1,-1,-1,-1,-1,-1,-1,-1,-1,-1,-1,-1,-1,-1,-1,-1,-1,-1,-1,-1,-1,-1,-1,-1,-1,-1,-1,-1,-1,-1,-1,-1,-1,-1,-1,-1,-1,-1,-1,-1,-1,-1,-1,-1,-1,-1,-1,-1],"loss_changes":[1.8371556E6,3.5802503E5,2.0747812E5,6.3904625E4,8.764059E4,2.2728666E4,1.3375412E5,2.1686938E4,3.0973406E4,2.9259531E4,3.677701E4,1.0674302E4,2.1220055E4,1.46008E5,1.5909979E4,4.7391016E3,1.6776125E4,1.4980406E4,3.334066E4,1.3588289E4,2.1884027E4,5.477082E4,5.936115E4,9.277406E3,7.87104E3,5.2463887E3,1.1457754E4,5.178175E4,1.1975385E4,1.1525337E4,5.3691934E3,2.415482E3,2.8182656E3,4.3801875E3,1.41255625E4,6.6944688E3,5.1555625E3,1.241848E4,1.9612762E4,1.2954328E4,1.2722861E4,1.6376723E4,2.0796408E4,1.6526832E4,1.4484898E4,9.4218545E3,1.7843586E4,6.6108325E3,5.1223594E3,7.7211846E3,3.1830007E3,4.1392754E3,2.3570386E3,8.626805E3,1.0426346E4,3.5704188E4,2.52415E4,8.914029E3,8.759011E3,4.0033145E3,1.1727031E4,3.8030332E3,7.5205615E3,0E0,0E0,0E0,0E0,0E0,0E0,0E0,0E0,0E0,0E0,0E0,0E0,0E0,0E0,0E0,0E0,0E0,0E0,0E0,0E0,0E0,0E0,0E0,0E0,0E0,0E0,0E0,0E0,0E0,0E0,0E0,0E0,0E0,0E0,0E0,0E0,0E0,0E0,0E0,0E0,0E0,0E0,0E0,0E0,0E0,0E0,0E0,0E0,0E0,0E0,0E0,0E0,0E0,0E0,0E0,0E0,0E0,0E0,0E0,0E0,0E0,0E0,0E0,0E0],"parents":[2147483647,0,0,1,1,2,2,3,3,4,4,5,5,6,6,7,7,8,8,9,9,10,10,11,11,12,12,13,13,14,14,15,15,16,16,17,17,18,18,19,19,20,20,21,21,22,22,23,23,24,24,25,25,26,26,27,27,28,28,29,29,30,30,31,31,32,32,33,33,34,34,35,35,36,36,37,37,38,38,39,39,40,40,41,41,42,42,43,43,44,44,45,45,46,46,47,47,48,48,49,49,50,50,51,51,52,52,53,53,54,54,55,55,56,56,57,57,58,58,59,59,60,60,61,61,62,62],"right_children":[2,4,6,8,10,12,14,16,18,20,22,24,26,28,30,32,34,36,38,40,42,44,46,48,50,52,54,56,58,60,62,64,66,68,70,72,74,76,78,80,82,84,86,88,90,92,94,96,98,100,102,104,106,108,110,112,114,116,118,120,122,124,126,-1,-1,-1,-1,-1,-1,-1,-1,-1,-1,-1,-1,-1,-1,-1,-1,-1,-1,-1,-1,-1,-1,-1,-1,-1,-1,-1,-1,-1,-1,-1,-1,-1,-1,-1,-1,-1,-1,-1,-1,-1,-1,-1,-1,-1,-1,-1,-1,-1,-1,-1,-1,-1,-1,-1,-1,-1,-1,-1,-1,-1,-1,-1,-1],"split_conditions":[8.8267756E-1,1.3036917E-1,-2.2880161E-1,-5.6566125E-1,-5.179551E-1,1.2036422E0,1.3642036E0,-8.2220143E-1,-2.2880161E-1,-1.1420827E0,1.3642036E0,-5.879724E-1,-1.3941475E0,7.6228625E-1,1.8455716E0,-2.0416856E0,-5.106087E-1,2.124071E0,2.4074812E-1,-8.021658E-2,1.8599792E-1,5.6171286E-1,7.388468E-1,-5.370326E-1,8.98402E-1,1.910432E0,-1.135118E-1,1.524607E0,-2.2722435E-1,8.487108E-1,2.0490084E0,1.556592E0,-3.1684446E0,-6.054518E-1,2.4074812E-1,2.4139028E0,-1.5674324E0,2.0490084E0,7.487937E-1,3.8760743E-1,-2.0416856E0,1.840447E-1,5.45231E-1,1.910432E0,3.0037355E0,2.644064E0,2.4074812E-1,-1.0850056E0,7.1524006E-1,1.3152858E0,-5.179551E-1,1.524607E0,2.8013155E-1,2.4875011E0,-8.2882494E-1,3.8760743E-1,4.8953995E-1,9.34801E-1,8.295241E-1,1.910432E0,-3.785806E-1,2.342593E0,1.910432E0,1.2574766E0,-6.435935E0,4.182295E0,-2.4088979E0,-4.305644E0,-5.9242067E0,-3.2786806E0,6.363232E-1,-2.2373784E0,-4.1874585E0,6.205082E0,3.8350895E-1,-1.8613192E0,2.2127717E0,1.4410548E0,-1.7194742E0,-4.9855456E0,-6.989806E-1,1.150179E1,-1.5393609E0,2.6058273E0,-2.883193E0,-1.8796397E0,5.734266E-1,-8.374002E-3,-5.1958666E0,2.6146567E0,-5.19119E0,-9.621757E-1,3.7987843E0,4.229284E0,2.4716766E-1,7.103129E0,1.594928E-2,-3.2071943E0,4.3196398E-1,2.1208193E0,-5.6994762E0,6.945836E0,-3.2987769E0,-4.2330093E0,-5.064593E-1,9.182295E0,-3.7906232E0,3.851587E0,1.1080082E1,6.889117E0,1.0862935E0,6.0133567E0,3.0054085E0,5.8939304E0,8.262076E0,5.9951077E0,1.3762658E0,-5.694658E-1,4.3793445E0,-2.8734748E0,5.919445E-1,-7.982951E0,2.2408273E0,3.6697447E0,9.550525E0,-2.6646516E0,4.364187E0],"split_indices":[2,1,1,5,5,2,4,4,1,5,4,1,3,3,2,4,3,4,2,2,3,2,3,0,4,5,4,2,0,1,4,0,0,3,2,0,3,4,4,4,4,4,4,5,1,4,2,5,0,0,5,2,0,2,0,4,1,3,4,5,5,5,5,0,0,0,0,0,0,0,0,0,0,0,0,0,0,0,0,0,0,0,0,0,0,0,0,0,0,0,0,0,0,0,0,0,0,0,0,0,0,0,0,0,0,0,0,0,0,0,0,0,0,0,0,0,0,0,0,0,0,0,0,0,0,0,0],"split_type":[0,0,0,0,0,0,0,0,0,0,0,0,0,0,0,0,0,0,0,0,0,0,0,0,0,0,0,0,0,0,0,0,0,0,0,0,0,0,0,0,0,0,0,0,0,0,0,0,0,0,0,0,0,0,0,0,0,0,0,0,0,0,0,0,0,0,0,0,0,0,0,0,0,0,0,0,0,0,0,0,0,0,0,0,0,0,0,0,0,0,0,0,0,0,0,0,0,0,0,0,0,0,0,0,0,0,0,0,0,0,0,0,0,0,0,0,0,0,0,0,0,0,0,0,0,0,0],"sum_hessian":[2.8709E4,2.2248E4,6.461E3,1.318E4,9.068E3,1.357E3,5.104E3,3.825E3,9.355E3,2.495E3,6.573E3,5.95E2,7.62E2,4.636E3,4.68E2,1.181E3,2.644E3,6.53E3,2.825E3,5.94E2,1.901E3,5.268E3,1.305E3,3.1E2,2.85E2,1.31E2,6.31E2,4.136E3,5E2,3.23E2,1.45E2,4.8E1,1.133E3,1.394E3,1.25E3,6.419E3,1.11E2,1.969E3,8.56E2,4.08E2,1.86E2,3.08E2,1.593E3,4.316E3,9.52E2,4.68E2,8.37E2,9E1,2.2E2,2.43E2,4.2E1,1.25E2,6E0,3.18E2,3.13E2,2.194E3,1.942E3,1.62E2,3.38E2,1.88E2,1.35E2,9.2E1,5.3E1,4.5E1,3E0,5E0,1.128E3,1.213E3,1.81E2,1.161E3,8.9E1,6.256E3,1.63E2,1.5E1,9.6E1,1.9E3,6.9E1,6.08E2,2.48E2,3.29E2,7.9E1,6E0,1.8E2,2.48E2,6E1,1.17E3,4.23E2,4.261E3,5.5E1,9.31E2,2.1E1,4.28E2,4E1,7.19E2,1.18E2,1.3E1,7.7E1,1.77E2,4.3E1,2.32E2,1.1E1,2E0,4E1,3.8E1,8.7E1,5E0,1E0,3.03E2,1.5E1,3E1,2.83E2,1.744E3,4.5E2,6E2,1.342E3,5.9E1,1.03E2,3.03E2,3.5E1,1.51E2,3.7E1,1E1,1.25E2,8.1E1,1.1E1,2.8E1,2.5E1],"tree_param":{"num_deleted":"0","num_feature":"6","num_nodes":"127","size_leaf_vector":"1"}},{"base_weights":[1.9299182E-3,-3.0183144E0,1.0400786E1,-5.3479733E0,3.6797458E-1,4.535897E0,1.3338308E1,-7.761866E0,-4.3602753E0,-2.5493798E0,2.043579E0,6.6741066E0,-4.6798113E-1,1.6721243E1,6.04756E0,-2.566342E0,-8.319022E0,-5.152672E0,-2.2214928E0,-4.11157E0,1.9747809E0,2.3267307E0,-8.28082E0,1.3025768E0,9.224967E0,1.3071242E1,-2.0806556E0,1.8338774E1,3.037874E0,7.483533E0,-2.614018E0,-1.8343391E0,-1.986572E1,-9.596681E0,-6.5851717E0,-5.7276807E0,-3.9425176E-1,-5.665032E0,-3.7621292E-1,4.037212E0,-5.151624E0,6.0441008E0,-5.3164434E0,1.7086334E0,7.139011E0,1.1156412E1,-1.3073347E1,5.7259214E-1,2.5976871E1,-1.9330067E1,9.870571E0,1.4358523E1,-6.010532E0,-3.664716E0,1.2490297E1,1.3376758E1,1.985056E1,4.0792155E-1,9.727663E0,5.2613816E0,1.2012291E1,-2.2312225E-1,-1.035359E1,-1.0594738E0,9.119567E-1,-1.8868616E0,-7.269222E0,-2.0258992E0,-3.092751E0,-2.3544614E0,-9.844296E-1,-1.2144496E0,-1.9989151E0,4.8119876E-1,-2.1053145E0,-8.682764E-2,-2.1415339E0,6.409902E-1,-1.3748062E0,-1.9106009E0,3.511032E0,-1.7337595E0,8.128061E-1,2.5858195E0,-8.3485715E-2,-7.183744E-1,-3.1645398E0,4.4901017E-2,1.3272161E0,-1.0463747E0,3.256036E0,-4.9340506E0,4.410387E0,-4.5124536E0,1.4666365E0,9.812617E-1,-1.5886462E0,-1.4088717E0,1.1614722E1,-7.5147877E0,8.1443615E0,3.3227847E0,-5.710555E-1,-1.5163728E0,4.905261E0,-7.5094166E0,-8.296147E-1,5.1463594E0,-3.3441184E0,4.4025517E0,-4.724721E-2,6.131533E0,2.6919727E0,1.6043454E0,-7.06326E-1,4.792324E0,-8.6456084E-1,3.786247E0,5.811767E-1,4.3140662E-1,4.730339E0,-1.2986637E0,2.6600113E0,-5.7115765E0,-4.0972973E-3],"categories":[],"categories_nodes":[],"categories_segments":[],"categories_sizes":[],"default_left":[0,0,0,0,0,0,0,0,0,0,0,0,0,0,0,0,0,0,0,0,0,0,0,0,0,0,0,0,0,0,0,0,0,0,0,0,0,0,0,0,0,0,0,0,0,0,0,0,0,0,0,0,0,0,0,0,0,0,0,0,0,0,0,0,0,0,0,0,0,0,0,0,0,0,0,0,0,0,0,0,0,0,0,0,0,0,0,0,0,0,0,0,0,0,0,0,0,0,0,0,0,0,0,0,0,0,0,0,0,0,0,0,0,0,0,0,0,0,0,0,0,0,0,0,0],"id":1,"left_children":[1,3,5,7,9,11,13,15,17,19,21,23,25,27,29,31,33,35,37,39,41,43,45,47,49,51,53,55,57,59,61,63,65,67,69,71,73,75,77,79,81,83,85,87,89,91,93,95,97,99,101,103,-1,105,107,109,111,113,115,117,119,121,123,-1,-1,-1,-1,-1,-1,-1,-1,-1,-1,-1,-1,-1,-1,-1,-1,-1,-1,-1,-1,-1,-1,-1,-1,-1,-1,-1,-1,-1,-1,-1,-1,-1,-1,-1,-1,-1,-1,-1,-1,-1,-1,-1,-1,-1,-1,-1,-1,-1,-1,-1,-1,-1,-1,-1,-1,-1,-1,-1,-1,-1,-1],"loss_changes":[9.017289E5,1.755221E5,1.11268375E5,3.139225E4,4.4337492E4,2.30923E4,1.06077875E5,1.1053828E4,1.5844766E4,2.3394805E4,1.6860799E4,2.0705445E4,1.4154026E4,6.5016188E4,1.7009586E4,4.6742676E3,7.590578E3,1.867461E4,1.6080587E4,2.0869727E4,2.5251906E4,1.6668559E4,1.4491484E4,8.774912E3,1.9086922E4,3.2282588E3,1.340983E4,1.9455875E4,5.4853057E3,1.173132E4,3.6060693E3,2.972354E3,7.365044E2,3.9562188E3,6.1039844E3,9.540219E3,9.765686E3,6.9917285E3,1.7440094E4,2.233144E4,1.0780219E4,8.892383E3,4.6373516E3,2.1042777E4,2.522169E4,3.2751443E3,4.4572383E3,7.538338E3,5.6521875E3,6.7938447E3,1.4255891E4,2.6740488E3,0E0,9.980625E3,6.4754834E3,1.0844898E4,1.2688875E4,3.0828694E3,6.977673E3,1.9252953E4,1.5266344E4,5.6364746E3,4.130645E3,0E0,0E0,0E0,0E0,0E0,0E0,0E0,0E0,0E0,0E0,0E0,0E0,0E0,0E0,0E0,0E0,0E0,0E0,0E0,0E0,0E0,0E0,0E0,0E0,0E0,0E0,0E0,0E0,0E0,0E0,0E0,0E0,0E0,0E0,0E0,0E0,0E0,0E0,0E0,0E0,0E0,0E0,0E0,0E0,0E0,0E0,0E0,0E0,0E0,0E0,0E0,0E0,0E0,0E0,0E0,0E0,0E0,0E0,0E0,0E0,0E0,0E0],"parents":[2147483647,0,0,1,1,2,2,3,3,4,4,5,5,6,6,7,7,8,8,9,9,10,10,11,11,12,12,13,13,14,14,15,15,16,16,17,17,18,18,19,19,20,20,21,21,22,22,23,23,24,24,25,25,26,26,27,27,28,28,29,29,30,30,31,31,32,32,33,33,34,34,35,35,36,36,37,37,38,38,39,39,40,40,41,41,42,42,43,43,44,44,45,45,46,46,47,47,48,48,49,49,50,50,51,51,53,53,54,54,55,55,56,56,57,57,58,58,59,59,60,60,61,61,62,62],"right_children":[2,4,6,8,10,12,14,16,18,20,22,24,26,28,30,32,34,36,38,40,42,44,46,48,50,52,54,56,58,60,62,64,66,68,70,72,74,76,78,80,82,84,86,88,90,92,94,96,98,100,102,104,-1,106,108,110,112,114,116,118,120,122,124,-1,-1,-1,-1,-1,-1,-1,-1,-1,-1,-1,-1,-1,-1,-1,-1,-1,-1,-1,-1,-1,-1,-1,-1,-1,-1,-1,-1,-1,-1,-1,-1,-1,-1,-1,-1,-1,-1,-1,-1,-1,-1,-1,-1,-1,-1,-1,-1,-1,-1,-1,-1,-1,-1,-1,-1,-1,-1,-1,-1,-1,-1],"split_conditions":[8.8267756E-1,1.3036917E-1,1.3036917E-1,-5.6566125E-1,-3.785806E-1,6.5789E-1,3.429797E-1,-1.4319435E0,2.4074812E-1,2.4074812E-1,3.0037355E0,-5.879724E-1,-9.307638E-1,9.5235646E-1,1.3591564E0,1.556592E0,-4.394763E-1,1.3642036E0,-5.879724E-1,-1.3640754E0,4.9273205E-1,1.7510322E0,-4.0118128E-1,1.668285E0,-1.684507E0,2.8084657E0,2.1665363E0,1.0760194E-2,8.487108E-1,3.3642942E-1,3.3629062E0,-1.0850056E0,-1.3640754E0,-9.308243E-1,-4.0118128E-1,-3.6607525E-1,-8.021658E-2,-6.0603505E-1,2.886599E-1,-3.1707454E-1,9.7346467E-1,-3.1707454E-1,5.6171286E-1,2.4074812E-1,4.768759E-1,-3.1707454E-1,1.6529028E0,3.5123575E-1,1.0760194E-2,7.1524006E-1,1.444224E0,-1.4676623E0,-6.010532E0,-1.0850056E0,2.342593E0,5.1394945E-1,1.9938266E0,7.29103E-1,3.1084576E-1,-5.0765145E-1,1.0760194E-2,3.6768246E-1,7.29103E-1,-1.0594738E0,9.119567E-1,-1.8868616E0,-7.269222E0,-2.0258992E0,-3.092751E0,-2.3544614E0,-9.844296E-1,-1.2144496E0,-1.9989151E0,4.8119876E-1,-2.1053145E0,-8.682764E-2,-2.1415339E0,6.409902E-1,-1.3748062E0,-1.9106009E0,3.511032E0,-1.7337595E0,8.128061E-1,2.5858195E0,-8.3485715E-2,-7.183744E-1,-3.1645398E0,4.4901017E-2,1.3272161E0,-1.0463747E0,3.256036E0,-4.9340506E0,4.410387E0,-4.5124536E0,1.4666365E0,9.812617E-1,-1.5886462E0,-1.4088717E0,1.1614722E1,-7.5147877E0,8.1443615E0,3.3227847E0,-5.710555E-1,-1.5163728E0,4.905261E0,-7.5094166E0,-8.296147E-1,5.1463594E0,-3.3441184E0,4.4025517E0,-4.724721E-2,6.131533E0,2.6919727E0,1.6043454E0,-7.06326E-1,4.792324E0,-8.6456084E-1,3.786247E0,5.811767E-1,4.3140662E-1,4.730339E0,-1.2986637E0,2.6600113E0,-5.7115765E0,-4.0972973E-3],"split_indices":[2,1,1,5,5,4,3,4,2,2,1,1,0,4,3,0,3,4,1,2,3,4,2,0,4,2,2,5,1,0,1,5,2,4,2,4,2,0,4,4,4,4,2,2,3,4,5,0,5,0,5,3,0,5,5,4,5,5,0,0,5,0,5,0,0,0,0,0,0,0,0,0,0,0,0,0,0,0,0,0,0,0,0,0,0,0,0,0,0,0,0,0,0,0,0,0,0,0,0,0,0,0,0,0,0,0,0,0,0,0,0,0,0,0,0,0,0,0,0,0,0,0,0,0,0],"split_type":[0,0,0,0,0,0,0,0,0,0,0,0,0,0,0,0,0,0,0,0,0,0,0,0,0,0,0,0,0,0,0,0,0,0,0,0,0,0,0,0,0,0,0,0,0,0,0,0,0,0,0,0,0,0,0,0,0,0,0,0,0,0,0,0,0,0,0,0,0,0,0,0,0,0,0,0,0,0,0,0,0,0,0,0,0,0,0,0,0,0,0,0,0,0,0,0,0,0,0,0,0,0,0,0,0,0,0,0,0,0,0,0,0,0,0,0,0,0,0,0,0,0,0,0,0],"sum_hessian":[2.8709E4,2.2248E4,6.461E3,1.318E4,9.068E3,2.157E3,4.304E3,3.825E3,9.355E3,3.308E3,5.76E3,1.511E3,6.46E2,2.939E3,1.365E3,3.71E2,3.454E3,6.825E3,2.53E3,2.459E3,8.49E2,5.607E3,1.53E2,4.87E2,1.024E3,6.8E1,5.78E2,2.628E3,3.11E2,1.171E3,1.94E2,3.57E2,1.4E1,1.986E3,1.468E3,6.089E3,7.36E2,8.82E2,1.648E3,2.78E2,2.181E3,5.45E2,3.04E2,4.97E3,6.37E2,3E1,1.23E2,4.74E2,1.3E1,2.2E1,1.002E3,6.6E1,2E0,5.22E2,5.6E1,6.16E2,2.012E3,2.24E2,8.7E1,7.87E2,3.84E2,1.49E2,4.5E1,2.65E2,9.2E1,4E0,1E1,4E2,1.586E3,1.061E3,4.07E2,2.18E3,3.909E3,5.66E2,1.7E2,1.9E2,6.92E2,1.032E3,6.16E2,1.18E2,1.6E2,2.02E3,1.61E2,3.87E2,1.58E2,1.96E2,1.08E2,3.158E3,1.812E3,1.65E2,4.72E2,3E0,2.7E1,1.11E2,1.2E1,3.25E2,1.49E2,4E0,9E0,2E1,2E0,9.09E2,9.3E1,6E0,6E1,2E1,5.02E2,4.7E1,9E0,5.62E2,5.4E1,1.908E3,1.04E2,8E1,1.44E2,5.8E1,2.9E1,2.44E2,5.43E2,1.01E2,2.83E2,1.03E2,4.6E1,2.4E1,2.1E1],"tree_param":{"num_deleted":"0","num_feature":"6","num_nodes":"125","size_leaf_vector":"1"}},{"base_weights":[1.3770954E-3,-2.1139996E0,7.2847285E0,-4.4443326E0,-3.9623982E-1,3.176899E0,9.342199E0,-7.520437E0,-4.0078588E0,-1.0096984E0,3.2800395E0,-2.1326762E-1,5.6537676E0,1.10679E1,2.1574724E0,-1.5307568E1,-7.0716896E0,-4.114722E0,3.7425425E0,-1.8291554E0,3.763032E0,4.877986E0,-3.267335E0,2.8497797E1,-5.3098345E-1,8.99125E0,2.514803E0,1.19594345E1,2.8094062E-1,-1.6403248E1,2.5401034E0,7.229633E0,-1.6331844E1,-1.3469708E0,-7.903308E0,-4.9792867E0,-3.5293891E0,-1.649961E0,1.13501E1,-5.0093775E0,-1.2448595E0,-5.363702E-1,7.4987917E0,6.738105E0,-1.4609802E0,-2.2248611E0,-1.3197382E1,-4.155776E0,1.0422771E1,5.6640023E-1,-8.967291E0,6.211706E0,1.3955377E1,1.3474091E1,1.3864745E0,7.6420736E0,1.3233754E1,-1.1059537E0,1.431154E1,9.877963E0,-2.8176918E1,4.0330634E0,-1.3951102E0,-6.724562E0,-3.7276845E0,3.0949466E0,-1.7123449E0,-1.6839654E0,-2.796269E0,6.908833E-2,-1.5768281E0,-1.3624492E0,-6.975299E-1,4.037577E0,-2.373245E0,-3.733937E0,4.5408287E0,-1.9411845E0,-3.6258468E-1,-3.2842773E-1,-3.4255998E0,-6.355995E-1,3.3219254E0,2.4801269E0,-2.5431542E0,-4.498977E0,2.1124504E0,-4.6183143E0,1.8402154E-2,-2.2332127E0,1.2566288E-1,-4.771937E0,1.7089618E0,-4.0241346E-1,1.2886168E0,-4.633E0,-8.054904E-1,1.4377244E0,5.1693993E0,-7.4423466E0,4.4974527E0,-6.819082E0,4.5343256E0,-2.4783607E0,7.2097075E-1,2.7533169E0,-2.5945E-1,-8.911663E0,4.0050545E0,-1.3958858E0,1.284239E0,6.212839E0,-1.2554307E0,8.4881735E0,-1.9210463E0,-1.0018667E1,-2.817223E0,-4.280897E0,1.4086946E0,7.9211545E0,-6.4305615E-1],"categories":[],"categories_nodes":[],"categories_segments":[],"categories_sizes":[],"default_left":[0,0,0,0,0,0,0,0,0,0,0,0,0,0,0,0,0,0,0,0,0,0,0,0,0,0,0,0,0,0,0,0,0,0,0,0,0,0,0,0,0,0,0,0,0,0,0,0,0,0,0,0,0,0,0,0,0,0,0,0,0,0,0,0,0,0,0,0,0,0,0,0,0,0,0,0,0,0,0,0,0,0,0,0,0,0,0,0,0,0,0,0,0,0,0,0,0,0,0,0,0,0,0,0,0,0,0,0,0,0,0,0,0,0,0,0,0,0,0,0,0],"id":2,"left_children":[1,3,5,7,9,11,13,15,17,19,21,23,25,27,29,31,33,35,37,39,41,43,45,47,49,51,53,55,57,59,61,-1,63,65,67,69,71,73,75,77,79,81,83,85,87,89,91,-1,-1,93,95,97,99,101,103,105,107,109,111,113,115,117,119,-1,-1,-1,-1,-1,-1,-1,-1,-1,-1,-1,-1,-1,-1,-1,-1,-1,-1,-1,-1,-1,-1,-1,-1,-1,-1,-1,-1,-1,-1,-1,-1,-1,-1,-1,-1,-1,-1,-1,-1,-1,-1,-1,-1,-1,-1,-1,-1,-1,-1,-1,-1,-1,-1,-1,-1,-1,-1],"loss_changes":[4.423513E5,8.905992E4,5.458547E4,1.2645719E4,2.8890746E4,1.8121928E4,5.3352406E4,3.98725E3,6.864875E3,4.2942367E4,1.9182967E4,8.334358E3,1.3041258E4,3.3377125E4,5.9717583E3,2.9364443E3,5.273828E3,4.1108438E3,4.6544146E3,1.7405018E4,2.584703E4,1.7378328E4,3.6972905E3,3.1259604E3,8.364932E3,8.247309E3,7.9448125E3,1.7537344E4,5.1919106E3,5.538577E3,4.817346E3,0E0,1.1947832E3,7.281365E3,3.0934453E3,4.7469844E3,5.9229062E3,6.444163E3,4.4227925E3,8.067426E3,1.2077482E4,1.3782273E4,1.0638246E4,7.616414E3,7.106664E3,4.515111E3,1.8309028E3,0E0,0E0,5.6970293E3,4.1897324E3,6.001408E3,9.047281E3,3.9067764E3,5.7583423E3,9.583578E3,1.27648125E4,4.66287E3,2.926775E3,1.9802095E3,8.6285156E2,7.2705117E3,4.758532E3,0E0,0E0,0E0,0E0,0E0,0E0,0E0,0E0,0E0,0E0,0E0,0E0,0E0,0E0,0E0,0E0,0E0,0E0,0E0,0E0,0E0,0E0,0E0,0E0,0E0,0E0,0E0,0E0,0E0,0E0,0E0,0E0,0E0,0E0,0E0,0E0,0E0,0E0,0E0,0E0,0E0,0E0,0E0,0E0,0E0,0E0,0E0,0E0,0E0,0E0,0E0,0E0,0E0,0E0,0E0,0E0,0E0,0E0],"parents":[2147483647,0,0,1,1,2,2,3,3,4,4,5,5,6,6,7,7,8,8,9,9,10,10,11,11,12,12,13,13,14,14,15,15,16,16,17,17,18,18,19,19,20,20,21,21,22,22,23,23,24,24,25,25,26,26,27,27,28,28,29,29,30,30,32,32,33,33,34,34,35,35,36,36,37,37,38,38,39,39,40,40,41,41,42,42,43,43,44,44,45,45,46,46,49,49,50,50,51,51,52,52,53,53,54,54,55,55,56,56,57,57,58,58,59,59,60,60,61,61,62,62],"right_children":[2,4,6,8,10,12,14,16,18,20,22,24,26,28,30,32,34,36,38,40,42,44,46,48,50,52,54,56,58,60,62,-1,64,66,68,70,72,74,76,78,80,82,84,86,88,90,92,-1,-1,94,96,98,100,102,104,106,108,110,112,114,116,118,120,-1,-1,-1,-1,-1,-1,-1,-1,-1,-1,-1,-1,-1,-1,-1,-1,-1,-1,-1,-1,-1,-1,-1,-1,-1,-1,-1,-1,-1,-1,-1,-1,-1,-1,-1,-1,-1,-1,-1,-1,-1,-1,-1,-1,-1,-1,-1,-1,-1,-1,-1,-1,-1,-1,-1,-1,-1,-1],"split_conditions":[8.8267756E-1,-2.2880161E-1,1.3036917E-1,-1.1420827E0,5.6171286E-1,1.2036422E0,6.275091E-1,-1.6654848E0,2.124071E0,1.3642036E0,8.295241E-1,-2.4266515E0,-2.1245933E-1,1.3642036E0,-1.4463547E0,-3.1151476E0,-1.2348654E0,-4.0118128E-1,2.8013155E-1,-1.0850056E0,8.244911E-1,1.2078816E0,2.184059E0,-3.1684446E0,1.6820912E0,-7.5136435E-1,-1.1362239E0,1.0760194E-2,2.644064E0,-1.4319435E0,1.3013947E0,7.229633E0,-5.6963795E-1,-6.469128E-1,-8.2220143E-1,-1.6654848E0,-5.879724E-1,-7.22146E-1,5.1725205E-2,-8.021658E-2,3.0037355E0,2.5836878E0,1.2881647E0,-2.0416856E0,-9.200654E-1,1.7222154E-1,1.2078816E0,-4.155776E0,1.0422771E1,-2.2880161E-1,8.295241E-1,2.4875011E0,-2.0416856E0,-7.634578E-1,-1.4211029E0,2.934963E-1,-2.294249E0,1.8455716E0,3.8605773E-1,1.2036422E0,1.2036422E0,-2.0416856E0,-1.0850056E0,-6.724562E0,-3.7276845E0,3.0949466E0,-1.7123449E0,-1.6839654E0,-2.796269E0,6.908833E-2,-1.5768281E0,-1.3624492E0,-6.975299E-1,4.037577E0,-2.373245E0,-3.733937E0,4.5408287E0,-1.9411845E0,-3.6258468E-1,-3.2842773E-1,-3.4255998E0,-6.355995E-1,3.3219254E0,2.4801269E0,-2.5431542E0,-4.498977E0,2.1124504E0,-4.6183143E0,1.8402154E-2,-2.2332127E0,1.2566288E-1,-4.771937E0,1.7089618E0,-4.0241346E-1,1.2886168E0,-4.633E0,-8.054904E-1,1.4377244E0,5.1693993E0,-7.4423466E0,4.4974527E0,-6.819082E0,4.5343256E0,-2.4783607E0,7.2097075E-1,2.7533169E0,-2.5945E-1,-8.911663E0,4.0050545E0,-1.3958858E0,1.284239E0,6.212839E0,-1.2554307E0,8.4881735E0,-1.9210463E0,-1.0018667E1,-2.817223E0,-4.280897E0,1.4086946E0,7.9211545E0,-6.4305615E-1],"split_indices":[2,1,1,5,2,2,3,1,4,4,4,0,4,4,5,3,3,2,0,5,3,1,5,0,5,3,0,5,4,4,3,0,4,0,4,1,1,2,5,2,1,4,0,4,5,5,1,0,0,1,4,2,4,5,3,3,4,2,0,2,2,4,5,0,0,0,0,0,0,0,0,0,0,0,0,0,0,0,0,0,0,0,0,0,0,0,0,0,0,0,0,0,0,0,0,0,0,0,0,0,0,0,0,0,0,0,0,0,0,0,0,0,0,0,0,0,0,0,0,0,0],"split_type":[0,0,0,0,0,0,0,0,0,0,0,0,0,0,0,0,0,0,0,0,0,0,0,0,0,0,0,0,0,0,0,0,0,0,0,0,0,0,0,0,0,0,0,0,0,0,0,0,0,0,0,0,0,0,0,0,0,0,0,0,0,0,0,0,0,0,0,0,0,0,0,0,0,0,0,0,0,0,0,0,0,0,0,0,0,0,0,0,0,0,0,0,0,0,0,0,0,0,0,0,0,0,0,0,0,0,0,0,0,0,0,0,0,0,0,0,0,0,0,0,0],"sum_hessian":[2.8709E4,2.2248E4,6.461E3,9.44E3,1.2808E4,2.157E3,4.304E3,1.171E3,8.269E3,1.0977E4,1.831E3,9.11E2,1.246E3,3.47E3,8.34E2,6.2E1,1.109E3,8.157E3,1.12E2,9.369E3,1.608E3,1.472E3,3.59E2,9E0,9.02E2,6.03E2,6.43E2,3.205E3,2.65E2,1.6E1,8.18E2,1E0,6.1E1,1.41E2,9.68E2,3.29E3,4.867E3,6.6E1,4.6E1,1.453E3,7.916E3,7.48E2,8.6E2,1.138E3,3.34E2,3.26E2,3.3E1,1E0,8E0,7.99E2,1.03E2,3.88E2,2.15E2,5.9E1,5.84E2,7.32E2,2.473E3,2.42E2,2.3E1,5E0,1.1E1,5.93E2,2.25E2,2.2E1,3.9E1,3.8E1,1.03E2,3.72E2,5.96E2,1.66E2,3.124E3,2.643E3,2.224E3,1.9E1,4.7E1,6E0,4E1,1.049E3,4.04E2,7.802E3,1.14E2,6.59E2,8.9E1,8.21E2,3.9E1,1.5E1,1.123E3,3.2E1,3.02E2,1.09E2,2.17E2,2.9E1,4E0,5.29E2,2.7E2,5E1,5.3E1,3.45E2,4.3E1,5E0,2.1E2,2E0,5.7E1,5.5E1,5.29E2,6.2E2,1.12E2,6E0,2.467E3,1.46E2,9.6E1,1.7E1,6E0,2E0,3E0,8E0,3E0,2E1,5.73E2,5E0,2.2E2],"tree_param":{"num_deleted":"0","num_feature":"6","num_nodes":"121","size_leaf_vector":"1"}},{"base_weights":[2.2844775E-4,-1.1637123E0,6.5398154E0,-2.5494413E0,7.3561245E-1,7.992597E0,2.7253513E0,-2.9631958E0,-4.5088288E-1,4.3071265E0,1.0451582E-1,3.5411735E0,8.965458E0,1.8680845E0,1.3651274E1,-3.1244073E0,2.85278E0,2.6532078E-1,-5.4114375E0,8.190179E0,-7.8384626E-1,-2.7125008E0,9.6276724E-1,-1.7953018E1,4.040058E0,1.07751665E1,4.8880196E0,1.2904689E0,1.338515E1,3.407666E0,2.1163391E1,-2.252056E0,-3.727198E0,-2.1602682E1,3.4726865E0,-1.5515546E1,5.419065E-1,-1.35493355E1,-1.9650195E0,8.53883E0,-1.5611712E1,-3.0252036E-1,-7.5147066E0,1.0073301E0,-3.4098787E0,1.1671275E0,-1.0543784E1,-2.3483418E1,3.6123657E-1,4.6383266E0,-9.340041E0,1.1174512E1,5.332534E-1,-2.0081336E0,7.1059327E0,-2.4940794E0,3.0502787E0,5.8338294E0,2.6590996E1,7.774701E0,-2.1178972E1,2.2350641E1,-5.551779E0,-1.4414444E0,-5.1507926E-1,-1.2844727E0,-7.4702805E-1,-1.01453595E-1,-7.3776474E0,1.9258572E0,-2.3715675E-1,-5.218765E0,7.2623754E0,-5.692913E-1,5.5138993E-1,7.381793E0,-4.5614862E0,-9.394811E-1,4.302258E0,-8.6291275E0,2.623733E0,-8.414201E0,-2.0905194E0,4.99449E0,-2.9981568E-1,-1.195145E0,1.5753537E0,5.048935E-1,-1.2616777E0,-1.3903455E0,4.549033E-1,-6.1180787E0,-2.1647477E0,-8.142114E0,-3.3638637E0,-2.545621E0,1.8415753E0,2.8714788E-1,2.0545752E0,-4.0922475E0,7.5937166E0,-6.785706E-1,3.4415338E0,-1.7697628E0,6.5422373E0,1.2936064E0,-3.5633233E0,2.6216648E0,-3.0500498E-2,-1.0480728E0,3.5927088E0,1.9894155E0,3.3377713E-1,3.5697331E0,-4.837165E0,-4.4040375E0,8.909821E0,4.313601E0,-1.0473901E0,-7.2817364E0,-8.5673565E-1,5.6027436E0,9.061117E0],"categories":[],"categories_nodes":[],"categories_segments":[],"categories_sizes":[],"default_left":[0,0,0,0,0,0,0,0,0,0,0,0,0,0,0,0,0,0,0,0,0,0,0,0,0,0,0,0,0,0,0,0,0,0,0,0,0,0,0,0,0,0,0,0,0,0,0,0,0,0,0,0,0,0,0,0,0,0,0,0,0,0,0,0,0,0,0,0,0,0,0,0,0,0,0,0,0,0,0,0,0,0,0,0,0,0,0,0,0,0,0,0,0,0,0,0,0,0,0,0,0,0,0,0,0,0,0,0,0,0,0,0,0,0,0,0,0,0,0,0,0,0,0],"id":3,"left_children":[1,3,5,7,9,11,13,15,17,19,21,23,25,27,29,31,33,35,37,39,41,43,45,47,49,51,53,55,57,59,61,63,65,67,69,71,73,75,77,79,81,83,-1,85,87,89,91,93,95,97,99,101,103,105,107,109,111,113,115,117,119,121,-1,-1,-1,-1,-1,-1,-1,-1,-1,-1,-1,-1,-1,-1,-1,-1,-1,-1,-1,-1,-1,-1,-1,-1,-1,-1,-1,-1,-1,-1,-1,-1,-1,-1,-1,-1,-1,-1,-1,-1,-1,-1,-1,-1,-1,-1,-1,-1,-1,-1,-1,-1,-1,-1,-1,-1,-1,-1,-1,-1,-1],"loss_changes":[2.1853928E5,6.415038E4,2.401761E4,1.223457E4,2.3174875E4,1.3570703E4,1.1195481E4,1.10454375E4,8.250962E3,3.0528998E4,2.1130965E4,6.1310967E3,1.8962953E4,7.3802363E3,6.6226357E3,6.0146406E3,4.895931E3,8.868874E3,8.1910293E3,7.40284E3,7.805979E3,5.298051E3,1.5764885E4,1.32519E3,4.4700273E3,7.290703E3,1.2158555E4,7.067299E3,5.130117E3,4.2447476E3,2.7684902E3,6.3889355E3,4.6337344E3,5.0024072E2,3.912163E3,3.0353877E3,6.3144307E3,5.8699756E3,3.9825005E3,6.921332E3,1.2018596E3,7.777409E3,0E0,6.8626E3,6.973246E3,1.3344319E4,3.6880752E3,1.4440723E2,2.565288E2,4.3056973E3,3.9220647E3,6.8840156E3,9.434142E3,1.2152445E4,7.0744453E3,4.9156978E3,5.016507E3,4.8531484E3,2.8734482E3,2.5054106E3,2.7077783E2,8.4999805E2,0E0,0E0,0E0,0E0,0E0,0E0,0E0,0E0,0E0,0E0,0E0,0E0,0E0,0E0,0E0,0E0,0E0,0E0,0E0,0E0,0E0,0E0,0E0,0E0,0E0,0E0,0E0,0E0,0E0,0E0,0E0,0E0,0E0,0E0,0E0,0E0,0E0,0E0,0E0,0E0,0E0,0E0,0E0,0E0,0E0,0E0,0E0,0E0,0E0,0E0,0E0,0E0,0E0,0E0,0E0,0E0,0E0,0E0,0E0,0E0,0E0],"parents":[2147483647,0,0,1,1,2,2,3,3,4,4,5,5,6,6,7,7,8,8,9,9,10,10,11,11,12,12,13,13,14,14,15,15,16,16,17,17,18,18,19,19,20,20,21,21,22,22,23,23,24,24,25,25,26,26,27,27,28,28,29,29,30,30,31,31,32,32,33,33,34,34,35,35,36,36,37,37,38,38,39,39,40,40,41,41,43,43,44,44,45,45,46,46,47,47,48,48,49,49,50,50,51,51,52,52,53,53,54,54,55,55,56,56,57,57,58,58,59,59,60,60,61,61],"right_children":[2,4,6,8,10,12,14,16,18,20,22,24,26,28,30,32,34,36,38,40,42,44,46,48,50,52,54,56,58,60,62,64,66,68,70,72,74,76,78,80,82,84,-1,86,88,90,92,94,96,98,100,102,104,106,108,110,112,114,116,118,120,122,-1,-1,-1,-1,-1,-1,-1,-1,-1,-1,-1,-1,-1,-1,-1,-1,-1,-1,-1,-1,-1,-1,-1,-1,-1,-1,-1,-1,-1,-1,-1,-1,-1,-1,-1,-1,-1,-1,-1,-1,-1,-1,-1,-1,-1,-1,-1,-1,-1,-1,-1,-1,-1,-1,-1,-1,-1,-1,-1,-1,-1],"split_conditions":[1.2036422E0,1.3036917E-1,7.544614E-1,5.6171286E-1,7.0821084E-2,-7.2819E-1,2.8084657E0,2.0490084E0,8.98402E-1,1.4471933E-1,4.8953995E-1,-1.7105807E0,2.2317782E-1,1.2251368E0,5.460253E-2,-3.6607525E-1,-1.6850401E0,-1.684507E0,4.7780547E-1,2.1259153E0,2.6979814E0,-6.7826086E-1,3.3629062E0,6.462376E-1,-7.692718E-1,1.9938266E0,-1.0747648E0,6.2306833E-1,-3.6392916E-2,2.124071E0,4.4132895E0,-1.5786408E0,4.7780547E-1,-2.0060048E0,-8.021658E-2,1.1955283E0,-5.879724E-1,-1.670931E0,2.549708E0,-2.3938239E0,-3.1707454E-1,-1.629299E0,-7.5147066E0,-4.0118128E-1,-1.0431107E0,-1.1420827E0,-3.785806E-1,3.1084576E-1,-2.0246556E0,5.1725205E-2,1.8541784E0,-1.684507E0,2.4875011E0,-1.4319435E0,2.285394E0,9.120386E-1,1.1955283E0,1.463151E0,-3.3329177E-1,-2.7685267E-1,8.487108E-1,5.236215E-1,-5.551779E0,-1.4414444E0,-5.1507926E-1,-1.2844727E0,-7.4702805E-1,-1.01453595E-1,-7.3776474E0,1.9258572E0,-2.3715675E-1,-5.218765E0,7.2623754E0,-5.692913E-1,5.5138993E-1,7.381793E0,-4.5614862E0,-9.394811E-1,4.302258E0,-8.6291275E0,2.623733E0,-8.414201E0,-2.0905194E0,4.99449E0,-2.9981568E-1,-1.195145E0,1.5753537E0,5.048935E-1,-1.2616777E0,-1.3903455E0,4.549033E-1,-6.1180787E0,-2.1647477E0,-8.142114E0,-3.3638637E0,-2.545621E0,1.8415753E0,2.8714788E-1,2.0545752E0,-4.0922475E0,7.5937166E0,-6.785706E-1,3.4415338E0,-1.7697628E0,6.5422373E0,1.2936064E0,-3.5633233E0,2.6216648E0,-3.0500498E-2,-1.0480728E0,3.5927088E0,1.9894155E0,3.3377713E-1,3.5697331E0,-4.837165E0,-4.4040375E0,8.909821E0,4.313601E0,-1.0473901E0,-7.2817364E0,-8.5673565E-1,5.6027436E0,9.061117E0],"split_indices":[2,1,4,2,3,3,2,4,4,4,1,3,3,0,0,4,2,4,5,0,5,4,1,0,3,5,4,5,3,4,2,5,5,2,2,5,1,0,4,5,4,0,0,2,2,5,5,0,1,5,5,4,2,4,1,3,5,4,5,0,1,0,0,0,0,0,0,0,0,0,0,0,0,0,0,0,0,0,0,0,0,0,0,0,0,0,0,0,0,0,0,0,0,0,0,0,0,0,0,0,0,0,0,0,0,0,0,0,0,0,0,0,0,0,0,0,0,0,0,0,0,0,0],"split_type":[0,0,0,0,0,0,0,0,0,0,0,0,0,0,0,0,0,0,0,0,0,0,0,0,0,0,0,0,0,0,0,0,0,0,0,0,0,0,0,0,0,0,0,0,0,0,0,0,0,0,0,0,0,0,0,0,0,0,0,0,0,0,0,0,0,0,0,0,0,0,0,0,0,0,0,0,0,0,0,0,0,0,0,0,0,0,0,0,0,0,0,0,0,0,0,0,0,0,0,0,0,0,0,0,0,0,0,0,0,0,0,0,0,0,0,0,0,0,0,0,0,0,0],"sum_hessian":[2.8709E4,2.4372E4,4.337E3,1.4091E4,1.0281E4,3.14E3,1.197E3,1.177E4,2.321E3,1.543E3,8.738E3,5.64E2,2.576E3,1.111E3,8.6E1,1.1453E4,3.17E2,2.029E3,2.92E2,8.75E2,6.68E2,2.04E3,6.698E3,1.2E1,5.52E2,1.783E3,7.93E2,1.059E3,5.2E1,3.7E1,4.9E1,4.682E3,6.771E3,7E0,3.1E2,3.4E1,1.995E3,8.6E1,2.06E2,8.63E2,1.2E1,6.56E2,1.2E1,3.22E2,1.718E3,6.582E3,1.16E2,9E0,3E0,5.29E2,2.3E1,1.716E3,6.7E1,1.93E2,6E2,3.36E2,7.23E2,3.4E1,1.8E1,3.2E1,5E0,4.8E1,1E0,8.1E2,3.872E3,4.674E3,2.097E3,1E0,6E0,1.83E2,1.27E2,3.3E1,1E0,6.92E2,1.303E3,3E0,8.3E1,1.93E2,1.3E1,4E0,8.59E2,4E0,8E0,2.5E1,6.31E2,1.48E2,1.74E2,2.32E2,1.486E3,3.73E2,6.209E3,2.8E1,8.8E1,6E0,3E0,1E0,2E0,1.99E2,3.3E2,2.1E1,2E0,3.7E1,1.679E3,5.2E1,1.5E1,1.18E2,7.5E1,4.89E2,1.11E2,3.15E2,2.1E1,2.53E2,4.7E2,2.7E1,7E0,1E0,1.7E1,2E1,1.2E1,4E0,1E0,3.5E1,1.3E1],"tree_param":{"num_deleted":"0","num_feature":"6","num_nodes":"123","size_leaf_vector":"1"}},{"base_weights":[-4.202336E-4,-1.0569645E0,3.6373165E0,-2.2744155E0,-1.5954776E-1,1.8476783E0,5.355808E0,-3.300813E0,-1.6120466E0,-1.0054467E1,-5.887714E-2,3.194017E0,-1.1161332E0,8.4985695E0,2.2758553E0,-1.7645732E0,-3.9254987E0,7.8451843E0,-1.6931766E0,-4.906885E0,-1.5047365E1,3.9032428E0,-2.6529428E-1,3.6930017E0,-5.172703E0,-2.2904966E0,5.225053E0,-2.0413027E1,8.600028E0,1.1267399E0,5.397498E0,-8.509701E-1,-4.8944893E0,-1.2712035E1,-3.832922E0,-5.169349E0,1.3198693E1,-3.2012556E0,-1.276309E0,1.0261873E1,-1.0069375E1,-1.7661617E1,-5.15575E0,-2.8800192E0,8.579036E0,-9.3074054E-1,1.1427202E0,-2.3212447E0,4.3066287E0,-7.2789063E0,1.0477221E1,4.1431074E0,-3.2914727E0,3.9236355E0,7.7702937E0,-9.744238E0,5.98887E0,8.923384E0,1.1721865E-2,3.517561E0,-2.0298316E0,5.767507E0,-1.8736998E1,-8.2658523E-1,2.7427602E-1,-5.875128E0,-1.2530755E0,-4.6088457E0,8.431248E0,3.8617367E-1,-1.226154E0,-6.610172E0,1.6398958E0,6.3281183E0,7.514954E-1,1.7658964E0,-1.1063553E0,2.5571734E-1,-5.978162E-1,1.0355434E1,7.795588E-1,-5.1127625E0,5.5135953E-1,-4.190447E0,-6.806423E0,2.797996E0,-6.9118347E0,-2.953086E0,-3.7008744E-1,1.4518833E0,3.6406622E0,-4.7860804E-1,8.0391467E-1,6.726302E-1,-9.558435E-1,5.4046454E0,-1.2470548E0,6.5775657E0,1.2513573E0,-6.298779E0,-1.0098784E0,4.594365E0,-4.1930847E0,1.5291519E0,-6.938837E0,-8.189043E-1,-3.7046733E0,-2.5563967E0,1.6207172E0,9.470741E-1,2.7955532E0,-6.931992E-1,6.389492E0,1.4105476E0,-2.2905622E0,-3.5297124E0,1.8331362E-2,3.5032162E-1,2.231738E0,-7.218697E0,-2.618227E0],"categories":[],"categories_nodes":[],"categories_segments":[],"categories_sizes":[],"default_left":[0,0,0,0,0,0,0,0,0,0,0,0,0,0,0,0,0,0,0,0,0,0,0,0,0,0,0,0,0,0,0,0,0,0,0,0,0,0,0,0,0,0,0,0,0,0,0,0,0,0,0,0,0,0,0,0,0,0,0,0,0,0,0,0,0,0,0,0,0,0,0,0,0,0,0,0,0,0,0,0,0,0,0,0,0,0,0,0,0,0,0,0,0,0,0,0,0,0,0,0,0,0,0,0,0,0,0,0,0,0,0,0,0,0,0,0,0,0,0,0,0],"id":4,"left_children":[1,3,5,7,9,11,13,15,17,19,21,23,25,27,29,31,33,35,37,39,41,43,45,47,49,51,53,55,57,59,61,63,65,67,69,71,73,75,77,79,81,83,85,87,89,91,93,95,97,99,101,103,105,107,-1,-1,-1,109,111,113,115,117,119,-1,-1,-1,-1,-1,-1,-1,-1,-1,-1,-1,-1,-1,-1,-1,-1,-1,-1,-1,-1,-1,-1,-1,-1,-1,-1,-1,-1,-1,-1,-1,-1,-1,-1,-1,-1,-1,-1,-1,-1,-1,-1,-1,-1,-1,-1,-1,-1,-1,-1,-1,-1,-1,-1,-1,-1,-1,-1],"loss_changes":[1.1034871E5,2.4308023E4,1.9863836E4,6.4131797E3,1.2758808E4,1.2640825E4,3.1884477E4,3.5457578E3,4.4173877E3,3.2416387E3,1.0372185E4,9.111959E3,7.3843555E3,4.959789E3,5.970074E3,3.06122E3,2.0914102E3,3.4822263E3,3.5743018E3,5.1933867E3,1.5897871E3,1.9943066E4,1.1295154E4,7.597672E3,4.1305786E3,5.39738E3,4.0691162E3,3.571894E3,4.5154297E3,9.2066875E3,4.1086963E3,2.7959583E3,2.469024E3,3.3530205E3,3.3965586E3,2.8109316E3,2.9021118E3,5.469573E3,6.8048374E3,3.0703298E3,4.09985E3,6.299082E2,4.0998643E3,2.934318E3,4.8885996E3,1.9647234E4,1.841998E4,7.204955E3,4.36125E3,5.779335E3,1.9884438E3,3.0581318E3,3.6502896E3,2.7512834E3,0E0,0E0,0E0,3.5409688E3,3.0153528E3,9.20213E3,1.0708551E4,3.389879E3,1.6312769E2,0E0,0E0,0E0,0E0,0E0,0E0,0E0,0E0,0E0,0E0,0E0,0E0,0E0,0E0,0E0,0E0,0E0,0E0,0E0,0E0,0E0,0E0,0E0,0E0,0E0,0E0,0E0,0E0,0E0,0E0,0E0,0E0,0E0,0E0,0E0,0E0,0E0,0E0,0E0,0E0,0E0,0E0,0E0,0E0,0E0,0E0,0E0,0E0,0E0,0E0,0E0,0E0,0E0,0E0,0E0,0E0,0E0,0E0],"parents":[2147483647,0,0,1,1,2,2,3,3,4,4,5,5,6,6,7,7,8,8,9,9,10,10,11,11,12,12,13,13,14,14,15,15,16,16,17,17,18,18,19,19,20,20,21,21,22,22,23,23,24,24,25,25,26,26,27,27,28,28,29,29,30,30,31,31,32,32,33,33,34,34,35,35,36,36,37,37,38,38,39,39,40,40,41,41,42,42,43,43,44,44,45,45,46,46,47,47,48,48,49,49,50,50,51,51,52,52,53,53,57,57,58,58,59,59,60,60,61,61,62,62],"right_children":[2,4,6,8,10,12,14,16,18,20,22,24,26,28,30,32,34,36,38,40,42,44,46,48,50,52,54,56,58,60,62,64,66,68,70,72,74,76,78,80,82,84,86,88,90,92,94,96,98,100,102,104,106,108,-1,-1,-1,110,112,114,116,118,120,-1,-1,-1,-1,-1,-1,-1,-1,-1,-1,-1,-1,-1,-1,-1,-1,-1,-1,-1,-1,-1,-1,-1,-1,-1,-1,-1,-1,-1,-1,-1,-1,-1,-1,-1,-1,-1,-1,-1,-1,-1,-1,-1,-1,-1,-1,-1,-1,-1,-1,-1,-1,-1,-1,-1,-1,-1,-1],"split_conditions":[8.8267756E-1,-2.2880161E-1,4.8953995E-1,-5.179551E-1,-2.2013853E0,3.8760743E-1,2.2317782E-1,-8.2220143E-1,-2.2990794E0,4.9273205E-1,-1.3640754E0,1.7687738E0,6.788455E-1,-2.294249E0,3.6768246E-1,-9.200654E-1,-2.3938239E0,-1.135118E-1,-6.9315135E-1,-5.6964046E-1,-1.135118E-1,-1.135118E-1,2.4074812E-1,-9.471432E-1,2.4875011E0,-9.307638E-1,2.4875011E0,1.2078816E0,1.7334336E0,5.460253E-2,4.081248E0,-1.4463547E0,-1.684507E0,5.1394945E-1,-1.9458728E0,-2.6649032E0,1.4392662E0,-1.5674324E0,-2.7685267E-1,1.7803172E-2,4.5686445E-1,1.1841972E0,-1.0431107E0,-1.0747648E0,2.0908034E0,1.3642036E0,8.5340893E-1,-1.4463547E0,-2.4266515E0,-9.848244E-1,2.8928673E0,2.8084657E0,2.4203978E0,1.0760194E-2,7.7702937E0,-9.744238E0,5.98887E0,-9.200654E-1,1.15356125E-1,1.463151E0,-1.0747648E0,1.0760194E-2,1.2881647E0,-8.2658523E-1,2.7427602E-1,-5.875128E0,-1.2530755E0,-4.6088457E0,8.431248E0,3.8617367E-1,-1.226154E0,-6.610172E0,1.6398958E0,6.3281183E0,7.514954E-1,1.7658964E0,-1.1063553E0,2.5571734E-1,-5.978162E-1,1.0355434E1,7.795588E-1,-5.1127625E0,5.5135953E-1,-4.190447E0,-6.806423E0,2.797996E0,-6.9118347E0,-2.953086E0,-3.7008744E-1,1.4518833E0,3.6406622E0,-4.7860804E-1,8.0391467E-1,6.726302E-1,-9.558435E-1,5.4046454E0,-1.2470548E0,6.5775657E0,1.2513573E0,-6.298779E0,-1.0098784E0,4.594365E0,-4.1930847E0,1.5291519E0,-6.938837E0,-8.189043E-1,-3.7046733E0,-2.5563967E0,1.6207172E0,9.470741E-1,2.7955532E0,-6.931992E-1,6.389492E0,1.4105476E0,-2.2905622E0,-3.5297124E0,1.8331362E-2,3.5032162E-1,2.231738E0,-7.218697E0,-2.618227E0],"split_indices":[2,1,1,5,5,4,3,4,3,3,2,5,0,4,0,5,5,4,0,0,4,4,2,1,2,0,2,1,4,0,1,5,4,4,5,3,4,3,0,3,0,3,2,4,3,4,4,5,0,3,5,2,5,5,0,0,0,5,3,4,4,5,0,0,0,0,0,0,0,0,0,0,0,0,0,0,0,0,0,0,0,0,0,0,0,0,0,0,0,0,0,0,0,0,0,0,0,0,0,0,0,0,0,0,0,0,0,0,0,0,0,0,0,0,0,0,0,0,0,0,0],"split_type":[0,0,0,0,0,0,0,0,0,0,0,0,0,0,0,0,0,0,0,0,0,0,0,0,0,0,0,0,0,0,0,0,0,0,0,0,0,0,0,0,0,0,0,0,0,0,0,0,0,0,0,0,0,0,0,0,0,0,0,0,0,0,0,0,0,0,0,0,0,0,0,0,0,0,0,0,0,0,0,0,0,0,0,0,0,0,0,0,0,0,0,0,0,0,0,0,0,0,0,0,0,0,0,0,0,0,0,0,0,0,0,0,0,0,0,0,0,0,0,0,0],"sum_hessian":[2.8709E4,2.2248E4,6.461E3,9.44E3,1.2808E4,3.166E3,3.295E3,3.701E3,5.739E3,1.28E2,1.268E4,2.177E3,9.89E2,1.63E3,1.665E3,1.071E3,2.63E3,4.8E1,5.691E3,6.4E1,6.4E1,6.27E2,1.2053E4,2.055E3,1.22E2,8.35E2,1.54E2,5E0,1.625E3,1.218E3,4.47E2,8.3E2,2.41E2,2.6E1,2.604E3,1.4E1,3.4E1,1.231E3,4.46E3,1.6E1,4.8E1,5E1,1.4E1,2.56E2,3.71E2,8.185E3,3.868E3,1.9E2,1.865E3,1.08E2,1.4E1,1.12E2,7.23E2,1.46E2,8E0,4E0,1E0,1.566E3,5.9E1,6.93E2,5.25E2,4.41E2,6E0,3.99E2,4.31E2,1E1,2.31E2,2.5E1,1E0,1.23E2,2.481E3,5E0,9E0,1.9E1,1.5E1,6.2E1,1.169E3,1.123E3,3.337E3,3E0,1.3E1,3E1,1.8E1,3.1E1,1.9E1,8E0,6E0,4.8E1,2.08E2,1.82E2,1.89E2,6.913E3,1.272E3,3.085E3,7.83E2,1.5E1,1.75E2,1.3E1,1.852E3,2.3E1,8.5E1,1.2E1,2E0,1.09E2,3E0,6.82E2,4.1E1,1.5E1,1.31E2,1.01E2,1.465E3,5.4E1,5E0,6.27E2,6.6E1,9.2E1,4.33E2,1.18E2,3.23E2,3E0,3E0],"tree_param":{"num_deleted":"0","num_feature":"6","num_nodes":"121","size_leaf_vector":"1"}},{"base_weights":[-7.465564E-4,-6.0550284E-1,3.3970695E0,-1.1559384E0,7.648806E-1,4.681526E0,1.90569E0,-2.1340096E0,-5.8329254E-1,5.231351E0,3.2744917E-1,2.707707E0,6.743081E0,-5.611814E0,2.7353005E0,-2.5963717E0,2.4314167E0,4.609802E-1,-1.7975152E0,4.147319E0,1.6811562E1,-1.4633226E0,1.5813326E0,-1.1468633E1,3.0710626E0,7.030733E0,-1.6873987E1,-3.3152866E0,-1.672676E1,2.5755153E0,7.93855E0,-2.1881793E0,-5.2097564E0,-4.5222774E0,3.1965885E0,-2.2681229E-1,3.11214E0,-2.943708E0,-7.1091205E-1,5.287684E0,-5.652918E0,2.4656261E1,-2.8703253E0,3.7157981E0,-4.08776E0,6.220703E0,1.663705E-2,-1.9944967E1,4.985488E0,4.1745863E0,-1.145963E0,9.363839E0,5.5867023E0,-8.789562E0,-3.893258E0,-1.9341084E1,-1.2494785E0,-5.678281E0,-2.6232174E1,1.0715365E0,4.8123193E0,-5.810239E-1,-1.6635399E0,-3.5365956E0,-1.3683312E0,4.732993E-1,-4.6906185E0,2.4897769E-1,1.7616994E0,-2.3272831E0,-1.8250667E-2,2.3067913E0,5.1805127E-1,-9.9824965E-1,3.6613733E-1,-2.9759857E-1,2.451952E0,7.370644E0,1.3727609E0,-7.720918E-1,-4.976317E0,9.998173E0,4.814966E0,-6.109155E0,2.0797606E0,2.2108765E0,3.8256755E-1,-1.1535724E0,-6.380288E0,1.1504953E-1,2.6386852E0,-3.9886482E0,1.05853535E-1,1.2834551E0,-9.995189E0,6.223639E0,-2.0951548E0,-1.4176826E0,1.4498513E0,1.7046795E0,-1.5679129E0,2.1725073E0,4.0672483E0,1.6306882E0,9.131822E0,-4.9092245E0,6.703842E0,-9.180565E0,1.3004518E0,3.5189526E0,-8.3697706E-1,1.633003E0,-6.703181E0,-5.5183125E0,-1.1652613E1,5.964996E-1,-8.950237E-1,1.2938988E0,5.9464827E0],"categories":[],"categories_nodes":[],"categories_segments":[],"categories_sizes":[],"default_left":[0,0,0,0,0,0,0,0,0,0,0,0,0,0,0,0,0,0,0,0,0,0,0,0,0,0,0,0,0,0,0,0,0,0,0,0,0,0,0,0,0,0,0,0,0,0,0,0,0,0,0,0,0,0,0,0,0,0,0,0,0,0,0,0,0,0,0,0,0,0,0,0,0,0,0,0,0,0,0,0,0,0,0,0,0,0,0,0,0,0,0,0,0,0,0,0,0,0,0,0,0,0,0,0,0,0,0,0,0,0,0,0,0,0,0,0,0,0,0],"id":5,"left_children":[1,3,5,7,9,11,13,15,17,19,21,23,25,27,29,31,33,35,37,39,41,43,45,47,49,51,53,55,57,59,-1,61,63,65,67,69,71,73,75,77,79,81,83,85,87,89,91,93,95,97,99,101,103,-1,105,107,109,111,113,115,117,-1,-1,-1,-1,-1,-1,-1,-1,-1,-1,-1,-1,-1,-1,-1,-1,-1,-1,-1,-1,-1,-1,-1,-1,-1,-1,-1,-1,-1,-1,-1,-1,-1,-1,-1,-1,-1,-1,-1,-1,-1,-1,-1,-1,-1,-1,-1,-1,-1,-1,-1,-1,-1,-1,-1,-1,-1,-1],"loss_changes":[5.8996812E4,1.8385627E4,8.301008E3,9.738131E3,1.3645401E4,9.462832E3,1.2544681E4,1.3560273E4,1.3909298E4,7.750996E3,1.4289914E4,6.1752734E3,7.856426E3,5.049701E3,6.793829E3,6.2088945E3,3.1590317E3,1.07554E4,6.3148633E3,6.411301E3,8.253893E3,3.564055E4,2.717109E4,4.283554E3,5.416907E3,3.7412656E3,2.1438499E3,5.5045728E3,3.4217383E3,6.04687E3,0E0,4.247492E3,3.3046895E3,4.0242397E3,3.3703926E3,5.854234E3,7.690741E3,3.948338E3,6.5132246E3,6.9145596E3,1.9775879E3,2.300877E3,2.884958E3,7.8556963E3,7.1678223E3,1.4185234E4,1.2536497E4,6.6209355E3,2.2198838E3,5.4244365E3,6.7722993E3,3.7197305E3,2.4552773E3,0E0,2.983489E3,5.198241E3,3.0118208E3,3.272561E3,1.0645283E3,4.0097432E3,5.3330273E3,0E0,0E0,0E0,0E0,0E0,0E0,0E0,0E0,0E0,0E0,0E0,0E0,0E0,0E0,0E0,0E0,0E0,0E0,0E0,0E0,0E0,0E0,0E0,0E0,0E0,0E0,0E0,0E0,0E0,0E0,0E0,0E0,0E0,0E0,0E0,0E0,0E0,0E0,0E0,0E0,0E0,0E0,0E0,0E0,0E0,0E0,0E0,0E0,0E0,0E0,0E0,0E0,0E0,0E0,0E0,0E0,0E0,0E0],"parents":[2147483647,0,0,1,1,2,2,3,3,4,4,5,5,6,6,7,7,8,8,9,9,10,10,11,11,12,12,13,13,14,14,15,15,16,16,17,17,18,18,19,19,20,20,21,21,22,22,23,23,24,24,25,25,26,26,27,27,28,28,29,29,31,31,32,32,33,33,34,34,35,35,36,36,37,37,38,38,39,39,40,40,41,41,42,42,43,43,44,44,45,45,46,46,47,47,48,48,49,49,50,50,51,51,52,52,54,54,55,55,56,56,57,57,58,58,59,59,60,60],"right_children":[2,4,6,8,10,12,14,16,18,20,22,24,26,28,30,32,34,36,38,40,42,44,46,48,50,52,54,56,58,60,-1,62,64,66,68,70,72,74,76,78,80,82,84,86,88,90,92,94,96,98,100,102,104,-1,106,108,110,112,114,116,118,-1,-1,-1,-1,-1,-1,-1,-1,-1,-1,-1,-1,-1,-1,-1,-1,-1,-1,-1,-1,-1,-1,-1,-1,-1,-1,-1,-1,-1,-1,-1,-1,-1,-1,-1,-1,-1,-1,-1,-1,-1,-1,-1,-1,-1,-1,-1,-1,-1,-1,-1,-1,-1,-1,-1,-1,-1,-1],"split_conditions":[1.2036422E0,4.8953995E-1,-2.1245933E-1,-4.0118128E-1,1.8599792E-1,-5.6963795E-1,-3.785806E-1,1.2226391E0,1.4471933E-1,1.0691978E0,-2.1245933E-1,-1.5895728E0,1.4810975E0,2.934963E-1,2.670146E0,1.3152858E0,-1.1789596E0,1.3036917E-1,1.7222154E-1,8.98402E-1,1.840447E-1,7.388468E-1,-7.22146E-1,1.8455716E0,3.9471233E-1,-2.0164071E-1,5.460253E-2,-1.135118E-1,1.524607E0,1.8455716E0,7.93855E0,7.29103E-1,-1.17938E0,9.343748E-1,4.7780547E-1,-1.6654848E0,-6.0603505E-1,8.8267756E-1,2.5836878E0,-1.670931E0,3.8605773E-1,8.8267756E-1,5.1394945E-1,-2.7685267E-1,4.0418625E0,1.5586964E0,-1.1420827E0,-3.3329177E-1,-2.091922E0,-1.1453282E0,-2.2722435E-1,-3.784855E-1,1.3258996E0,-8.789562E0,-3.6607525E-1,-5.6566125E-1,-7.458716E-1,-5.179551E-1,2.8013155E-1,1.4392662E0,1.7385042E0,-5.810239E-1,-1.6635399E0,-3.5365956E0,-1.3683312E0,4.732993E-1,-4.6906185E0,2.4897769E-1,1.7616994E0,-2.3272831E0,-1.8250667E-2,2.3067913E0,5.1805127E-1,-9.9824965E-1,3.6613733E-1,-2.9759857E-1,2.451952E0,7.370644E0,1.3727609E0,-7.720918E-1,-4.976317E0,9.998173E0,4.814966E0,-6.109155E0,2.0797606E0,2.2108765E0,3.8256755E-1,-1.1535724E0,-6.380288E0,1.1504953E-1,2.6386852E0,-3.9886482E0,1.05853535E-1,1.2834551E0,-9.995189E0,6.223639E0,-2.0951548E0,-1.4176826E0,1.4498513E0,1.7046795E0,-1.5679129E0,2.1725073E0,4.0672483E0,1.6306882E0,9.131822E0,-4.9092245E0,6.703842E0,-9.180565E0,1.3004518E0,3.5189526E0,-8.3697706E-1,1.633003E0,-6.703181E0,-5.5183125E0,-1.1652613E1,5.964996E-1,-8.950237E-1,1.2938988E0,5.9464827E0],"split_indices":[2,1,4,2,3,4,5,4,4,0,4,0,3,3,0,0,0,1,5,4,4,3,2,2,3,0,0,4,2,2,0,5,4,5,5,1,0,2,4,0,0,2,4,0,3,3,5,5,0,3,0,0,3,0,4,5,0,5,0,4,0,0,0,0,0,0,0,0,0,0,0,0,0,0,0,0,0,0,0,0,0,0,0,0,0,0,0,0,0,0,0,0,0,0,0,0,0,0,0,0,0,0,0,0,0,0,0,0,0,0,0,0,0,0,0,0,0,0,0],"split_type":[0,0,0,0,0,0,0,0,0,0,0,0,0,0,0,0,0,0,0,0,0,0,0,0,0,0,0,0,0,0,0,0,0,0,0,0,0,0,0,0,0,0,0,0,0,0,0,0,0,0,0,0,0,0,0,0,0,0,0,0,0,0,0,0,0,0,0,0,0,0,0,0,0,0,0,0,0,0,0,0,0,0,0,0,0,0,0,0,0,0,0,0,0,0,0,0,0,0,0,0,0,0,0,0,0,0,0,0,0,0,0,0,0,0,0,0,0,0,0],"sum_hessian":[2.8709E4,2.4372E4,4.337E3,1.7388E4,6.984E3,2.329E3,2.008E3,6.42E3,1.0968E4,6.22E2,6.362E3,1.191E3,1.138E3,1.99E2,1.809E3,5.83E3,5.9E2,5.897E3,5.071E3,5.7E2,5.2E1,2.62E3,3.742E3,2.9E1,1.162E3,1.125E3,1.3E1,1.66E2,3.3E1,1.798E3,1.1E1,5.044E3,7.86E2,5.8E1,5.32E2,4.683E3,1.214E3,2.467E3,2.604E3,5.11E2,5.9E1,3.7E1,1.5E1,8.81E2,1.739E3,9.43E2,2.799E3,1.9E1,1E1,9.21E2,2.41E2,4.28E2,6.97E2,6E0,7E0,1.8E1,1.48E2,1.6E1,1.7E1,1.076E3,7.22E2,4.694E3,3.5E2,6.9E1,7.17E2,3.8E1,2E1,2.83E2,2.49E2,1E2,4.583E3,2.81E2,9.33E2,2.259E3,2.08E2,2.525E3,7.9E1,1.7E1,4.94E2,4.7E1,1.2E1,1.7E1,2E1,5E0,1E1,3.52E2,5.29E2,1.716E3,2.3E1,2.89E2,6.54E2,6.8E1,2.731E3,7E0,1.2E1,4E0,6E0,6.3E1,8.58E2,9E1,1.51E2,2.86E2,1.42E2,6.94E2,3E0,5E0,2E0,1.2E1,6E0,1.5E1,1.33E2,1E1,6E0,1.2E1,5E0,8.78E2,1.98E2,7E2,2.2E1],"tree_param":{"num_deleted":"0","num_feature":"6","num_nodes":"119","size_leaf_vector":"1"}},{"base_weights":[-7.5309194E-4,-3.365418E-1,3.183294E0,-1.3915889E0,1.4282371E-1,1.3004026E0,4.45003E0,-2.9114872E-1,-1.911011E0,-4.6983406E-1,8.20031E-1,2.8203855E0,-7.833944E-1,2.7239885E0,6.9059224E0,3.1431377E-1,-1.110839E1,-2.2989156E0,2.216757E0,-1.6978111E0,-1.1196169E-1,2.351435E0,2.675133E-1,1.1410949E0,6.0959387E0,-1.8290124E0,7.399045E0,3.2007308E0,-7.550514E0,9.624743E0,3.9657583E0,1.2204032E-1,1.1145861E1,-2.0109856E1,-8.421781E0,-1.9776351E0,-7.331789E0,-4.9578843E0,3.7972257E0,2.9863396E0,-2.5156856E0,-3.886645E0,1.9306286E-1,2.8763843E0,-2.8409452E0,1.177879E-1,6.3823533E0,5.146706E0,-1.8472042E0,3.1229806E0,1.4334139E1,-1.4596755E1,-1.4115754E0,4.933912E0,9.023262E0,4.105002E0,-1.2946022E0,9.347373E0,-1.0198679E1,1.0121986E1,-6.6195426E0,1.9249529E0,1.0217173E1,-1.8712858E0,1.1523879E-1,5.363321E0,-3.0189073E0,-2.7592854E0,-6.2851615E0,5.12333E0,-2.7938955E0,-2.0739143E0,-5.179788E-1,6.2698107E0,-2.3923945E0,1.4459578E0,-3.8397036E0,1.6082251E0,-2.1483364E0,-4.7454283E-1,1.7416861E0,-4.7899428E-1,-1.6721504E0,-2.2096087E-1,-2.5847018E0,1.3984698E0,-2.444567E-2,1.0333306E0,-3.5235095E-1,-1.3520803E0,3.6388717E0,4.6262503E-1,-1.4931774E-1,-2.633055E0,2.191409E0,1.8979853E0,-9.09655E0,-1.089617E0,1.2122315E0,-6.4896436E0,1.2683804E0,-1.708928E0,5.175704E0,-6.807835E0,5.9862804E0,1.2018133E0,-7.405213E-1,6.7378798E0,5.898453E-1,1.1200411E-3,1.63665E0,5.6550393E0,-1.5940771E0,-4.0665193E0,7.2709928E0,4.6423364E0,2.5164907E0,-7.0817547E0,5.545559E0,1.0787212E0,-4.3510113E0,3.9699218E0,-1.903271E0],"categories":[],"categories_nodes":[],"categories_segments":[],"categories_sizes":[],"default_left":[0,0,0,0,0,0,0,0,0,0,0,0,0,0,0,0,0,0,0,0,0,0,0,0,0,0,0,0,0,0,0,0,0,0,0,0,0,0,0,0,0,0,0,0,0,0,0,0,0,0,0,0,0,0,0,0,0,0,0,0,0,0,0,0,0,0,0,0,0,0,0,0,0,0,0,0,0,0,0,0,0,0,0,0,0,0,0,0,0,0,0,0,0,0,0,0,0,0,0,0,0,0,0,0,0,0,0,0,0,0,0,0,0,0,0,0,0,0,0,0,0,0,0],"id":6,"left_children":[1,3,5,7,9,11,13,15,17,19,21,23,25,27,29,31,33,35,37,39,41,43,45,47,49,51,53,55,57,59,61,63,65,67,69,71,73,75,77,79,81,83,85,87,89,91,93,95,97,99,101,103,105,107,-1,109,111,-1,113,115,117,119,121,-1,-1,-1,-1,-1,-1,-1,-1,-1,-1,-1,-1,-1,-1,-1,-1,-1,-1,-1,-1,-1,-1,-1,-1,-1,-1,-1,-1,-1,-1,-1,-1,-1,-1,-1,-1,-1,-1,-1,-1,-1,-1,-1,-1,-1,-1,-1,-1,-1,-1,-1,-1,-1,-1,-1,-1,-1,-1,-1,-1],"loss_changes":[3.0696861E4,1.3135622E4,6.5270703E3,4.6373477E3,7.4100186E3,3.4957808E3,6.9203887E3,1.7051666E4,8.830803E3,4.1206177E3,7.1770723E3,3.5024307E3,4.0004922E3,4.7412207E3,5.357629E3,5.1343774E3,3.1679512E3,8.133383E3,5.3936533E3,8.1140073E3,8.362008E3,6.1383535E3,5.7076836E3,5.0728022E3,5.245469E3,2.1859026E3,2.814591E3,3.7491787E3,4.72554E3,2.8940742E3,4.1394136E3,4.0427107E3,6.3192524E3,9.169043E1,2.613377E3,5.8583613E3,5.6475596E3,6.6551836E3,6.7033765E3,4.0660352E3,5.0557207E3,8.082698E3,8.244613E3,4.705213E3,5.2173955E3,5.337078E3,2.1474292E3,7.7666387E3,2.568404E3,4.4679824E3,3.4301172E3,4.0892568E3,2.3115383E3,2.5044314E3,0E0,4.248203E3,1.2649184E4,0E0,5.067234E3,3.0252227E3,5.1271626E3,6.831852E3,4.0797578E3,0E0,0E0,0E0,0E0,0E0,0E0,0E0,0E0,0E0,0E0,0E0,0E0,0E0,0E0,0E0,0E0,0E0,0E0,0E0,0E0,0E0,0E0,0E0,0E0,0E0,0E0,0E0,0E0,0E0,0E0,0E0,0E0,0E0,0E0,0E0,0E0,0E0,0E0,0E0,0E0,0E0,0E0,0E0,0E0,0E0,0E0,0E0,0E0,0E0,0E0,0E0,0E0,0E0,0E0,0E0,0E0,0E0,0E0,0E0,0E0],"parents":[2147483647,0,0,1,1,2,2,3,3,4,4,5,5,6,6,7,7,8,8,9,9,10,10,11,11,12,12,13,13,14,14,15,15,16,16,17,17,18,18,19,19,20,20,21,21,22,22,23,23,24,24,25,25,26,26,27,27,28,28,29,29,30,30,31,31,32,32,33,33,34,34,35,35,36,36,37,37,38,38,39,39,40,40,41,41,42,42,43,43,44,44,45,45,46,46,47,47,48,48,49,49,50,50,51,51,52,52,53,53,55,55,56,56,58,58,59,59,60,60,61,61,62,62],"right_children":[2,4,6,8,10,12,14,16,18,20,22,24,26,28,30,32,34,36,38,40,42,44,46,48,50,52,54,56,58,60,62,64,66,68,70,72,74,76,78,80,82,84,86,88,90,92,94,96,98,100,102,104,106,108,-1,110,112,-1,114,116,118,120,122,-1,-1,-1,-1,-1,-1,-1,-1,-1,-1,-1,-1,-1,-1,-1,-1,-1,-1,-1,-1,-1,-1,-1,-1,-1,-1,-1,-1,-1,-1,-1,-1,-1,-1,-1,-1,-1,-1,-1,-1,-1,-1,-1,-1,-1,-1,-1,-1,-1,-1,-1,-1,-1,-1,-1,-1,-1,-1,-1,-1],"split_conditions":[1.524607E0,-5.179551E-1,4.8953995E-1,-6.7826086E-1,1.3036917E-1,7.29103E-1,8.669082E-1,1.6518152E0,1.3957387E0,-6.469128E-1,-3.784855E-1,4.7780547E-1,1.1001933E0,2.6445646E0,1.6820912E0,1.3957387E0,-6.9315135E-1,9.61522E-1,-5.370326E-1,-8.2220143E-1,-1.0747648E0,1.444224E0,2.2618268E0,5.460253E-2,3.3642942E-1,-1.670931E0,1.4392662E0,5.1394945E-1,-1.2639968E0,1.4929216E0,3.3642942E-1,-1.5064617E0,-7.634578E-1,-2.3938239E0,-5.6964046E-1,-1.5895728E0,-5.6963795E-1,-1.3640754E0,1.3152858E0,-1.4155159E0,-8.065277E-1,-1.4319435E0,-9.308243E-1,1.9262232E0,2.5857413E0,2.3354529E-1,-3.6392916E-2,2.8084657E0,1.840447E-1,-1.306314E0,-9.471432E-1,2.1665363E0,-8.2882494E-1,-6.7826086E-1,9.023262E0,-1.0747648E0,-1.4072038E-1,9.347373E0,8.9452523E-1,-4.568309E-1,5.460253E-2,3.1084576E-1,9.120386E-1,-1.8712858E0,1.1523879E-1,5.363321E0,-3.0189073E0,-2.7592854E0,-6.2851615E0,5.12333E0,-2.7938955E0,-2.0739143E0,-5.179788E-1,6.2698107E0,-2.3923945E0,1.4459578E0,-3.8397036E0,1.6082251E0,-2.1483364E0,-4.7454283E-1,1.7416861E0,-4.7899428E-1,-1.6721504E0,-2.2096087E-1,-2.5847018E0,1.3984698E0,-2.444567E-2,1.0333306E0,-3.5235095E-1,-1.3520803E0,3.6388717E0,4.6262503E-1,-1.4931774E-1,-2.633055E0,2.191409E0,1.8979853E0,-9.09655E0,-1.089617E0,1.2122315E0,-6.4896436E0,1.2683804E0,-1.708928E0,5.175704E0,-6.807835E0,5.9862804E0,1.2018133E0,-7.405213E-1,6.7378798E0,5.898453E-1,1.1200411E-3,1.63665E0,5.6550393E0,-1.5940771E0,-4.0665193E0,7.2709928E0,4.6423364E0,2.5164907E0,-7.0817547E0,5.545559E0,1.0787212E0,-4.3510113E0,3.9699218E0,-1.903271E0],"split_indices":[2,5,1,4,1,5,5,3,3,0,0,5,0,1,5,3,0,3,0,4,4,5,4,0,0,0,4,4,0,4,0,3,5,5,0,0,4,2,0,0,0,4,4,1,3,3,3,2,4,1,1,2,0,4,0,4,3,0,0,0,0,0,3,0,0,0,0,0,0,0,0,0,0,0,0,0,0,0,0,0,0,0,0,0,0,0,0,0,0,0,0,0,0,0,0,0,0,0,0,0,0,0,0,0,0,0,0,0,0,0,0,0,0,0,0,0,0,0,0,0,0,0,0],"split_type":[0,0,0,0,0,0,0,0,0,0,0,0,0,0,0,0,0,0,0,0,0,0,0,0,0,0,0,0,0,0,0,0,0,0,0,0,0,0,0,0,0,0,0,0,0,0,0,0,0,0,0,0,0,0,0,0,0,0,0,0,0,0,0,0,0,0,0,0,0,0,0,0,0,0,0,0,0,0,0,0,0,0,0,0,0,0,0,0,0,0,0,0,0,0,0,0,0,0,0,0,0,0,0,0,0,0,0,0,0,0,0,0,0,0,0,0,0,0,0,0,0,0,0],"sum_hessian":[2.8709E4,2.5971E4,2.738E3,8.113E3,1.7858E4,1.102E3,1.636E3,2.602E3,5.511E3,9.376E3,8.482E3,6.37E2,4.65E2,9.62E2,6.74E2,2.465E3,1.37E2,5.038E3,4.73E2,2.115E3,7.261E3,2.248E3,6.234E3,4.22E2,2.15E2,4.13E2,5.2E1,9.2E2,4.2E1,3.49E2,3.25E2,2.423E3,4.2E1,3E1,1.07E2,4.737E3,3.01E2,8.5E1,3.88E2,3.14E2,1.801E3,5.42E2,6.719E3,2.042E3,2.06E2,6.086E3,1.48E2,1.8E2,2.42E2,1.59E2,5.6E1,1.2E1,4.01E2,4.8E1,4E0,7.66E2,1.54E2,2E0,4E1,3.39E2,1E1,2.46E2,7.9E1,9.5E1,2.328E3,3.2E1,1E1,3E0,2.7E1,3E0,1.04E2,2.28E2,4.509E3,6E0,2.95E2,3.8E1,4.7E1,3.4E2,4.8E1,1.2E2,1.94E2,1.386E3,4.15E2,3.26E2,2.16E2,3.88E2,6.331E3,1.791E3,2.51E2,1.86E2,2E1,1.836E3,4.25E3,8E0,1.4E2,1.75E2,5E0,1.86E2,5.6E1,6E0,1.53E2,7E0,4.9E1,1E1,2E0,6.5E1,3.36E2,6E0,4.2E1,1.9E2,5.76E2,2.5E1,1.29E2,3.7E1,3E0,8.1E1,2.58E2,6E0,4E0,2.24E2,2.2E1,6.7E1,1.2E1],"tree_param":{"num_deleted":"0","num_feature":"6","num_nodes":"123","size_leaf_vector":"1"}},{"base_weights":[2.5926932E-4,-5.179515E-1,1.0950525E0,-7.426184E-1,1.0490452E0,1.51307125E1,1.0184445E0,-7.981016E-1,4.4021945E0,-3.3779545E0,3.5288517E0,-7.488095E0,1.645829E1,1.626116E0,-5.2467924E-1,1.660258E-1,-1.0505445E0,1.3757843E-1,7.5282693E0,1.4288743E0,-5.2406745E0,4.9372134E0,-2.1859053E-1,-8.627788E-1,1.8895248E1,-6.0847397E0,1.8056315E0,-4.1102314E0,2.9264309E-2,6.657885E-1,-4.526601E0,-3.164099E0,-8.610902E-1,-1.126736E1,3.7468493E0,7.973748E0,-5.8202314E0,6.589793E0,-2.7253592E0,-1.1664713E1,-3.0429773E0,6.837015E0,1.9699494E0,1.1943437E0,-1.0485332E1,1.2878023E1,-7.042957E0,1.9689308E1,-2.1682813E0,-9.196563E0,2.0551563E1,1.6074299E0,7.027098E0,3.7035587E0,-5.6912117E0,4.422547E0,-3.4622592E-1,-7.816251E-2,4.8015544E-1,2.4843691E-1,-2.3807428E0,-1.3353792E0,-1.462347E-1,-3.934667E-1,-4.129675E-2,4.1042423E-1,-5.1613016E0,3.6226885E0,-3.3042718E-2,-2.364769E0,2.5085812E0,5.656953E0,-2.0674087E-1,-6.1179323E0,-2.598332E-1,3.7602706E0,-3.7083247E0,-9.122522E-2,-2.4604797E0,2.1290476E0,-7.2412024E0,-1.8669103E0,8.2448226E-1,-1.7455654E0,9.289576E-1,3.4877398E0,-4.8080077E0,-2.9123595E0,6.285439E0,6.2018228E0,4.127121E-3,2.7289846E0,-3.5727332E0,7.032312E0,-3.4185855E0,5.0441533E-1,-3.4401574E0,1.8792697E0,8.367118E0,8.085448E0,1.6895945E-1,-1.3548344E0,-3.7483127E0,-8.9755577E-1,2.5638669E0,-2.3732929E-1,1.6837547E0],"categories":[],"categories_nodes":[],"categories_segments":[],"categories_sizes":[],"default_left":[0,0,0,0,0,0,0,0,0,0,0,0,0,0,0,0,0,0,0,0,0,0,0,0,0,0,0,0,0,0,0,0,0,0,0,0,0,0,0,0,0,0,0,0,0,0,0,0,0,0,0,0,0,0,0,0,0,0,0,0,0,0,0,0,0,0,0,0,0,0,0,0,0,0,0,0,0,0,0,0,0,0,0,0,0,0,0,0,0,0,0,0,0,0,0,0,0,0,0,0,0,0,0,0,0,0,0],"id":7,"left_children":[1,3,5,7,9,11,13,15,17,19,21,-1,23,25,27,29,31,33,35,37,39,41,43,45,47,49,51,53,55,57,59,61,63,65,67,69,-1,71,73,75,77,79,81,83,85,87,-1,89,-1,91,93,95,97,99,101,103,105,-1,-1,-1,-1,-1,-1,-1,-1,-1,-1,-1,-1,-1,-1,-1,-1,-1,-1,-1,-1,-1,-1,-1,-1,-1,-1,-1,-1,-1,-1,-1,-1,-1,-1,-1,-1,-1,-1,-1,-1,-1,-1,-1,-1,-1,-1,-1,-1,-1,-1],"loss_changes":[1.6288716E4,6.8612217E3,9.902635E3,4.8687354E3,2.68424E4,3.072003E3,8.604364E3,4.104411E3,2.425299E3,7.8689053E3,8.27132E3,0E0,2.084628E3,9.123291E3,5.15032E3,8.211213E3,5.3485137E3,3.252971E3,1.41431E3,5.292116E3,8.901256E3,6.4073145E3,6.235695E3,2.477448E3,1.0342578E3,1.2622121E4,6.6472715E3,4.307725E3,3.7082603E3,2.7400244E3,6.1586323E3,3.784206E3,3.9970918E3,1.4488477E3,1.928772E3,7.060576E2,0E0,9.834734E3,4.4826143E3,2.8680137E3,6.6804824E3,5.7562285E3,2.8611558E3,5.0604614E3,6.5576606E3,1.1151227E3,0E0,8.1239746E2,0E0,6.8071836E3,1.7440713E3,6.0142373E3,3.5655254E3,4.2922275E3,2.2539502E3,5.4372705E3,5.4944023E3,0E0,0E0,0E0,0E0,0E0,0E0,0E0,0E0,0E0,0E0,0E0,0E0,0E0,0E0,0E0,0E0,0E0,0E0,0E0,0E0,0E0,0E0,0E0,0E0,0E0,0E0,0E0,0E0,0E0,0E0,0E0,0E0,0E0,0E0,0E0,0E0,0E0,0E0,0E0,0E0,0E0,0E0,0E0,0E0,0E0,0E0,0E0,0E0,0E0,0E0],"parents":[2147483647,0,0,1,1,2,2,3,3,4,4,5,5,6,6,7,7,8,8,9,9,10,10,12,12,13,13,14,14,15,15,16,16,17,17,18,18,19,19,20,20,21,21,22,22,23,23,24,24,25,25,26,26,27,27,28,28,29,29,30,30,31,31,32,32,33,33,34,34,35,35,37,37,38,38,39,39,40,40,41,41,42,42,43,43,44,44,45,45,47,47,49,49,50,50,51,51,52,52,53,53,54,54,55,55,56,56],"right_children":[2,4,6,8,10,12,14,16,18,20,22,-1,24,26,28,30,32,34,36,38,40,42,44,46,48,50,52,54,56,58,60,62,64,66,68,70,-1,72,74,76,78,80,82,84,86,88,-1,90,-1,92,94,96,98,100,102,104,106,-1,-1,-1,-1,-1,-1,-1,-1,-1,-1,-1,-1,-1,-1,-1,-1,-1,-1,-1,-1,-1,-1,-1,-1,-1,-1,-1,-1,-1,-1,-1,-1,-1,-1,-1,-1,-1,-1,-1,-1,-1,-1,-1,-1,-1,-1,-1,-1,-1,-1],"split_conditions":[5.6171286E-1,1.3445233E0,-2.4266515E0,2.5836878E0,-1.135118E-1,-1.4319435E0,6.498462E-1,-6.7826086E-1,-2.7685267E-1,1.6518152E0,4.8769054E-1,-7.488095E0,-3.1684446E0,-1.684507E0,1.0760194E-2,6.2306833E-1,-1.1420827E0,-7.2819E-1,1.3013947E0,-6.7826086E-1,-1.17938E0,-4.0118128E-1,-8.021658E-2,1.1636031E0,1.6520847E0,8.9452523E-1,1.6245553E0,-5.0765145E-1,5.1725205E-2,-1.0747648E0,-3.209239E-1,4.5686445E-1,-8.021658E-2,-9.471432E-1,5.8450237E-2,-1.3640754E0,-5.8202314E0,-2.7685267E-1,-1.629299E0,-2.0060048E0,-3.6607525E-1,5.1580935E0,-9.599927E-1,5.45231E-1,5.1394945E-1,-5.879724E-1,-7.042957E0,5.0556797E-1,-2.1682813E0,-6.9315135E-1,3.0037355E0,2.0908034E0,3.2776496E0,-9.471432E-1,1.5670524E0,-4.992275E-1,2.4875011E0,-7.816251E-2,4.8015544E-1,2.4843691E-1,-2.3807428E0,-1.3353792E0,-1.462347E-1,-3.934667E-1,-4.129675E-2,4.1042423E-1,-5.1613016E0,3.6226885E0,-3.3042718E-2,-2.364769E0,2.5085812E0,5.656953E0,-2.0674087E-1,-6.1179323E0,-2.598332E-1,3.7602706E0,-3.7083247E0,-9.122522E-2,-2.4604797E0,2.1290476E0,-7.2412024E0,-1.8669103E0,8.2448226E-1,-1.7455654E0,9.289576E-1,3.4877398E0,-4.8080077E0,-2.9123595E0,6.285439E0,6.2018228E0,4.127121E-3,2.7289846E0,-3.5727332E0,7.032312E0,-3.4185855E0,5.0441533E-1,-3.4401574E0,1.8792697E0,8.367118E0,8.085448E0,1.6895945E-1,-1.3548344E0,-3.7483127E0,-8.9755577E-1,2.5638669E0,-2.3732929E-1,1.6837547E0],"split_indices":[2,3,0,4,4,4,4,4,0,3,0,0,0,4,5,5,5,3,3,4,4,2,2,5,4,0,0,0,5,4,0,0,2,1,3,2,0,0,0,2,4,3,0,4,4,1,0,3,0,0,1,3,0,1,1,3,2,0,0,0,0,0,0,0,0,0,0,0,0,0,0,0,0,0,0,0,0,0,0,0,0,0,0,0,0,0,0,0,0,0,0,0,0,0,0,0,0,0,0,0,0,0,0,0,0,0,0],"split_type":[0,0,0,0,0,0,0,0,0,0,0,0,0,0,0,0,0,0,0,0,0,0,0,0,0,0,0,0,0,0,0,0,0,0,0,0,0,0,0,0,0,0,0,0,0,0,0,0,0,0,0,0,0,0,0,0,0,0,0,0,0,0,0,0,0,0,0,0,0,0,0,0,0,0,0,0,0,0,0,0,0,0,0,0,0,0,0,0,0,0,0,0,0,0,0,0,0,0,0,0,0,0,0,0,0,0,0],"sum_hessian":[2.8709E4,1.9486E4,9.223E3,1.7043E4,2.443E3,4.9E1,9.174E3,1.6862E4,1.81E2,8.77E2,1.566E3,1E0,4.8E1,6.582E3,2.592E3,3.499E3,1.3363E4,7.7E1,1.04E2,2.45E2,6.32E2,1.138E3,4.28E2,6E0,4.2E1,1.49E2,6.433E3,3.46E2,2.246E3,3.163E3,3.36E2,1.098E3,1.2265E4,1.8E1,5.9E1,1.03E2,1E0,1.09E2,1.36E2,1.6E2,4.72E2,6.93E2,4.45E2,3.77E2,5.1E1,4E0,2E0,4.1E1,1E0,1.34E2,1.5E1,6.199E3,2.34E2,5.8E1,2.88E2,1.76E2,2.07E3,1.589E3,1.574E3,1.31E2,2.05E2,7.41E2,3.57E2,7.558E3,4.707E3,6E0,1.2E1,1.8E1,4.1E1,2E0,1.01E2,4E1,6.9E1,1.2E1,1.24E2,4E0,1.56E2,3.09E2,1.63E2,6.88E2,5E0,3.8E1,4.07E2,8E1,2.97E2,1E1,4.1E1,1E0,3E0,3.9E1,2E0,1.7E1,1.17E2,1.4E1,1E0,6.165E3,3.4E1,2.27E2,7E0,6E0,5.2E1,2.47E2,4.1E1,6.3E1,1.13E2,1.927E3,1.43E2],"tree_param":{"num_deleted":"0","num_feature":"6","num_nodes":"107","size_leaf_vector":"1"}},{"base_weights":[-2.7032758E-4,-1.9508338E-1,1.8470042E0,-1.0223994E0,4.501277E-2,1.7246397E0,1.3632924E1,-1.0888686E0,1.1891178E1,8.716598E-2,-7.490276E0,-1.2055849E1,1.8108947E0,6.1870265E0,9.236194E0,2.88791E-3,-1.697188E0,1.8505957E1,-1.2167084E0,-5.0341177E-1,5.1142555E-1,-1.0375874E1,8.155395E0,6.2694516E0,-2.0610151E1,1.775932E0,9.781127E0,-1.3696758E1,4.317651E0,-6.9048494E-1,2.261661E0,-1.8610265E0,3.1674166E0,2.2849396E1,-4.116999E0,1.8746614E1,-1.5302409E1,6.273529E-1,-9.6610296E-1,1.0773997E0,-6.955149E-1,-1.1766135E1,3.6622071E0,1.1021642E1,-6.0856204E0,-3.554593E0,-1.282754E1,5.785338E-1,2.5780454E0,-7.4693E0,2.9858942E0,-3.9686653E-1,7.365509E-1,-5.84901E-1,1.3907769E0,1.8416184E0,-5.81628E-1,-4.303183E0,1.4577005E0,3.296488E0,1.1975554E1,1.5575517E0,7.815756E0,-1.8658922E0,-5.307477E0,2.3647608E-1,-3.6829014E0,1.1865526E-2,-5.0503343E-1,-6.6772515E-1,4.128033E-1,-2.3931131E-1,3.570111E0,-5.7869935E0,-2.7590115E0,5.1721244E0,-9.7585356E-1,4.3810916E0,-4.5202947E0,2.0368484E-1,-7.9959607E0,4.4786957E-1,1.2356393E0],"categories":[],"categories_nodes":[],"categories_segments":[],"categories_sizes":[],"default_left":[0,0,0,0,0,0,0,0,0,0,0,0,0,0,0,0,0,0,0,0,0,0,0,0,0,0,0,0,0,0,0,0,0,0,0,0,0,0,0,0,0,0,0,0,0,0,0,0,0,0,0,0,0,0,0,0,0,0,0,0,0,0,0,0,0,0,0,0,0,0,0,0,0,0,0,0,0,0,0,0,0,0,0],"id":8,"left_children":[1,3,5,7,9,11,13,15,17,19,21,23,25,-1,27,29,31,33,35,37,39,41,43,-1,45,47,-1,49,-1,51,53,55,57,59,-1,61,63,65,67,69,71,73,-1,75,-1,77,-1,79,81,-1,-1,-1,-1,-1,-1,-1,-1,-1,-1,-1,-1,-1,-1,-1,-1,-1,-1,-1,-1,-1,-1,-1,-1,-1,-1,-1,-1,-1,-1,-1,-1,-1,-1],"loss_changes":[1.0332319E4,5.159005E3,3.9266172E3,5.027451E3,6.394996E3,3.245416E3,6.701074E2,3.8606318E3,2.6236895E3,5.0164336E3,5.141096E3,5.222991E3,2.8446143E3,0E0,2.4437192E3,3.2607654E3,2.9811309E3,3.1132876E3,3.3800396E3,4.3797466E3,7.9595146E3,3.1263086E3,1.6909083E3,0E0,5.1365366E3,2.585958E3,0E0,1.3073999E3,0E0,3.1722393E3,4.8984526E3,2.2580195E3,3.6835762E3,3.2056191E3,0E0,3.5988892E2,4.1867188E1,5.056948E3,4.285171E3,7.8268477E3,4.797749E3,1.5624756E3,0E0,1.5651672E3,0E0,2.101553E3,0E0,2.9768147E3,2.6906963E3,0E0,0E0,0E0,0E0,0E0,0E0,0E0,0E0,0E0,0E0,0E0,0E0,0E0,0E0,0E0,0E0,0E0,0E0,0E0,0E0,0E0,0E0,0E0,0E0,0E0,0E0,0E0,0E0,0E0,0E0,0E0,0E0,0E0,0E0],"parents":[2147483647,0,0,1,1,2,2,3,3,4,4,5,5,6,6,7,7,8,8,9,9,10,10,11,11,12,12,14,14,15,15,16,16,17,17,18,18,19,19,20,20,21,21,22,22,24,24,25,25,27,27,29,29,30,30,31,31,32,32,33,33,35,35,36,36,37,37,38,38,39,39,40,40,41,41,43,43,45,45,47,47,48,48],"right_children":[2,4,6,8,10,12,14,16,18,20,22,24,26,-1,28,30,32,34,36,38,40,42,44,-1,46,48,-1,50,-1,52,54,56,58,60,-1,62,64,66,68,70,72,74,-1,76,-1,78,-1,80,82,-1,-1,-1,-1,-1,-1,-1,-1,-1,-1,-1,-1,-1,-1,-1,-1,-1,-1,-1,-1,-1,-1,-1,-1,-1,-1,-1,-1,-1,-1,-1,-1,-1,-1],"split_conditions":[1.524607E0,-5.879724E-1,2.1259153E0,2.4203978E0,2.4203978E0,-1.6475433E0,-4.394763E-1,-3.209239E-1,1.7334336E0,1.0760194E-2,1.2078816E0,-1.4319435E0,2.2844748E0,6.1870265E0,4.8953995E-1,-4.8104203E-1,2.0490084E0,-8.662705E-1,-1.3307229E0,-6.7826086E-1,7.29103E-1,2.6587503E0,1.0399688E0,6.2694516E0,1.8455716E0,4.8953995E-1,9.781127E0,2.5358565E0,4.317651E0,5.6171286E-1,-9.200654E-1,-2.0060048E0,-2.7685267E-1,8.98402E-1,-4.116999E0,-2.0246556E0,-1.2248223E0,-1.5743731E-1,-3.6392916E-2,-1.0747648E0,3.2776496E0,2.4074812E-1,3.6622071E0,2.285394E0,-6.0856204E0,-1.9458728E0,-1.282754E1,4.0923247E0,8.669082E-1,-7.4693E0,2.9858942E0,-3.9686653E-1,7.365509E-1,-5.84901E-1,1.3907769E0,1.8416184E0,-5.81628E-1,-4.303183E0,1.4577005E0,3.296488E0,1.1975554E1,1.5575517E0,7.815756E0,-1.8658922E0,-5.307477E0,2.3647608E-1,-3.6829014E0,1.1865526E-2,-5.0503343E-1,-6.6772515E-1,4.128033E-1,-2.3931131E-1,3.570111E0,-5.7869935E0,-2.7590115E0,5.1721244E0,-9.7585356E-1,4.3810916E0,-4.5202947E0,2.0368484E-1,-7.9959607E0,4.4786957E-1,1.2356393E0],"split_indices":[2,1,0,5,5,5,3,0,4,5,1,4,3,0,1,0,4,3,3,4,5,4,0,0,2,1,0,0,0,2,5,2,0,4,0,1,0,5,3,4,0,2,0,1,0,5,0,2,5,0,0,0,0,0,0,0,0,0,0,0,0,0,0,0,0,0,0,0,0,0,0,0,0,0,0,0,0,0,0,0,0,0,0],"split_type":[0,0,0,0,0,0,0,0,0,0,0,0,0,0,0,0,0,0,0,0,0,0,0,0,0,0,0,0,0,0,0,0,0,0,0,0,0,0,0,0,0,0,0,0,0,0,0,0,0,0,0,0,0,0,0,0,0,0,0,0,0,0,0,0,0,0,0,0,0,0,0,0,0,0,0,0,0,0,0,0,0,0,0],"sum_hessian":[2.8709E4,2.5971E4,2.738E3,5.841E3,2.013E4,2.711E3,2.7E1,5.812E3,2.9E1,2.0019E4,1.11E2,1.6E1,2.695E3,9E0,1.8E1,2.08E3,3.732E3,1.9E1,1E1,8.369E3,1.165E4,9.4E1,1.7E1,3E0,1.3E1,2.693E3,2E0,3E0,1.5E1,1.592E3,4.88E2,3.611E3,1.21E2,1.7E1,2E0,4E0,6E0,2.43E3,5.939E3,7.931E3,3.719E3,8.9E1,5E0,1.6E1,1E0,8E0,5E0,1.081E3,1.612E3,2E0,1E0,1.326E3,2.66E2,1.76E2,3.12E2,3.4E1,3.577E3,1E1,1.11E2,1.1E1,6E0,2E0,2E0,2E0,4E0,2.401E3,2.9E1,2.473E3,3.466E3,6.57E2,7.274E3,3.69E3,2.9E1,2.1E1,6.8E1,1.1E1,5E0,3E0,5E0,1.078E3,3E0,9.47E2,6.65E2],"tree_param":{"num_deleted":"0","num_feature":"6","num_nodes":"83","size_leaf_vector":"1"}},{"base_weights":[9.8662305E-5,-3.3315507E-1,6.828848E-1,6.0658947E-2,-7.3017246E-1,1.9180267E0,-9.8134354E-2,-1.4987932E0,4.6633583E-1,8.012858E-1,-1.104809E0,1.7808512E1,1.8299232E0,-1.3619808E0,7.6882726E-1,-1.0539284E0,-8.163336E0,8.436395E-1,-2.2897882E0,2.2443031E-1,6.6709127E0,-7.965262E-1,-3.759349E0,-6.4003525E0,2.0991539E1,2.3137941E0,-2.234087E-1,-1.1908222E0,-1.7218407E1,-8.288739E-1,2.4741213E0,-1.4917583E0,4.558688E0,-1.0685105E1,7.4208016E0,5.963972E-1,3.8546875E0,-1.1493599E1,-1.7845861E0,-5.8257043E-1,2.0539207E0,-6.267857E0,9.622868E0,7.867723E0,-8.4552467E-1,1.7276427E0,-4.1888433E0,3.111349E1,6.287874E0,-1.6016346E1,2.4007668E0,5.6182494E0,-1.2878618E0,2.1390812E0,-1.9740084E0,-3.195376E1,-1.0883361E1,2.1130717E0,-2.4433844E0,4.995382E0,-2.693574E-1,7.470723E-1,-5.8575624E-1,7.172443E0,7.4800587E-1,-4.0545626E0,-1.8784288E0,1.8468362E-1,9.325519E0,1.1354888E-1,1.5621877E0,7.675732E-1,2.624618E0,-5.5288334E0,5.0116663E0,-4.2564434E-1,-3.7369673E0,4.4129767E-2,-1.1615417E0,-8.2272714E-1,1.1439174E0,6.2321167E0,-3.2618577E0,3.5229838E0,-4.4692892E-1,3.619962E0,-5.171058E0,2.3257324E-1,-3.3600244E-1,-5.053445E0,2.202772E0,-3.681555E-2,-1.4457182E0,1.006586E1,1.007959E0,2.960607E0,-3.3537972E0,-7.691631E0,4.334821E0,-6.824864E-2,8.789905E-1,3.446973E0,-4.699102E-1,-5.038979E0,-2.3875588E-1,-3.8730493E0,8.5317194E-1,-3.1651788E0,-4.998837E-1,-1.182291E1,-2.662784E0,2.9808953E0,-5.7086096E0,-3.098464E-1,1.5461171E0,-2.2227995E0,-4.2958236E-1,4.1638565E0,1.2396591E0,3.9255425E-2,-4.9801655E0],"categories":[],"categories_nodes":[],"categories_segments":[],"categories_sizes":[],"default_left":[0,0,0,0,0,0,0,0,0,0,0,0,0,0,0,0,0,0,0,0,0,0,0,0,0,0,0,0,0,0,0,0,0,0,0,0,0,0,0,0,0,0,0,0,0,0,0,0,0,0,0,0,0,0,0,0,0,0,0,0,0,0,0,0,0,0,0,0,0,0,0,0,0,0,0,0,0,0,0,0,0,0,0,0,0,0,0,0,0,0,0,0,0,0,0,0,0,0,0,0,0,0,0,0,0,0,0,0,0,0,0,0,0,0,0,0,0,0,0,0,0],"id":9,"left_children":[1,3,5,7,9,11,13,15,17,19,21,23,25,27,29,31,33,35,37,39,41,43,45,-1,47,49,51,53,55,57,59,61,63,65,67,69,71,73,75,77,79,81,83,85,87,89,91,93,95,97,99,101,103,105,107,109,111,113,115,117,119,-1,-1,-1,-1,-1,-1,-1,-1,-1,-1,-1,-1,-1,-1,-1,-1,-1,-1,-1,-1,-1,-1,-1,-1,-1,-1,-1,-1,-1,-1,-1,-1,-1,-1,-1,-1,-1,-1,-1,-1,-1,-1,-1,-1,-1,-1,-1,-1,-1,-1,-1,-1,-1,-1,-1,-1,-1,-1,-1,-1],"loss_changes":[6.53293E3,3.016681E3,9.084481E3,6.1290215E3,5.513382E3,5.0746406E3,6.3232734E3,5.921039E3,7.9966504E3,6.3945186E3,6.31466E3,2.9397104E3,3.6061025E3,6.3518833E3,9.328187E3,4.61683E3,4.991742E3,5.032471E3,4.2851895E3,2.542081E3,6.515213E3,2.943583E3,1.8996133E3,0E0,2.632127E3,4.7206807E3,4.3164277E3,6.065062E3,1.9859639E3,8.4028125E3,1.145594E4,3.1991711E3,5.375372E3,1.2674775E3,2.8795796E3,6.2785234E3,3.231685E3,9.695949E3,3.4135073E3,2.8686355E3,4.4569814E3,4.210718E3,3.2692344E3,4.318962E3,3.061603E3,6.2763853E3,1.908501E3,6.319834E2,6.7324646E2,4.4746255E3,4.0675996E3,4.5318594E3,4.465698E3,4.7356543E3,4.949522E3,8.5466846E2,3.4111575E3,6.002931E3,5.725398E3,6.5606973E3,5.1916675E3,0E0,0E0,0E0,0E0,0E0,0E0,0E0,0E0,0E0,0E0,0E0,0E0,0E0,0E0,0E0,0E0,0E0,0E0,0E0,0E0,0E0,0E0,0E0,0E0,0E0,0E0,0E0,0E0,0E0,0E0,0E0,0E0,0E0,0E0,0E0,0E0,0E0,0E0,0E0,0E0,0E0,0E0,0E0,0E0,0E0,0E0,0E0,0E0,0E0,0E0,0E0,0E0,0E0,0E0,0E0,0E0,0E0,0E0,0E0,0E0],"parents":[2147483647,0,0,1,1,2,2,3,3,4,4,5,5,6,6,7,7,8,8,9,9,10,10,11,11,12,12,13,13,14,14,15,15,16,16,17,17,18,18,19,19,20,20,21,21,22,22,24,24,25,25,26,26,27,27,28,28,29,29,30,30,31,31,32,32,33,33,34,34,35,35,36,36,37,37,38,38,39,39,40,40,41,41,42,42,43,43,44,44,45,45,46,46,47,47,48,48,49,49,50,50,51,51,52,52,53,53,54,54,55,55,56,56,57,57,58,58,59,59,60,60],"right_children":[2,4,6,8,10,12,14,16,18,20,22,24,26,28,30,32,34,36,38,40,42,44,46,-1,48,50,52,54,56,58,60,62,64,66,68,70,72,74,76,78,80,82,84,86,88,90,92,94,96,98,100,102,104,106,108,110,112,114,116,118,120,-1,-1,-1,-1,-1,-1,-1,-1,-1,-1,-1,-1,-1,-1,-1,-1,-1,-1,-1,-1,-1,-1,-1,-1,-1,-1,-1,-1,-1,-1,-1,-1,-1,-1,-1,-1,-1,-1,-1,-1,-1,-1,-1,-1,-1,-1,-1,-1,-1,-1,-1,-1,-1,-1,-1,-1,-1,-1,-1,-1],"split_conditions":[4.8953995E-1,-2.1245933E-1,5.161715E-1,-7.22146E-1,-7.22146E-1,-2.560941E0,-2.1245933E-1,1.9686308E0,7.29103E-1,1.1636031E0,5.8450237E-2,-1.4319435E0,8.295241E-1,1.8541784E0,5.871816E-1,3.65705E-1,1.3036917E-1,6.2306833E-1,-1.5153503E0,3.7143263E-1,-8.2882494E-1,-1.9458728E0,-1.135118E-1,-6.4003525E0,4.010412E-2,-2.3046978E0,-8.9505084E-2,7.781424E-1,7.388468E-1,-7.22146E-1,-8.021658E-2,-1.5590799E0,4.7780547E-1,-4.6376403E-2,-6.7826086E-1,1.4365839E0,6.1685646E-1,-3.0367815E-1,1.5329339E-1,1.5329339E-1,2.886599E-1,-2.874021E0,2.0490084E0,8.295241E-1,-8.2882494E-1,-7.634578E-1,-5.6566125E-1,1.524607E0,1.4929216E0,7.29103E-1,-1.0747648E0,1.444224E0,-4.6376403E-2,-1.684507E0,-1.8446581E0,5.660359E-1,8.8358563E-1,8.295241E-1,-6.469128E-1,2.4366684E-1,2.9037447E0,7.470723E-1,-5.8575624E-1,7.172443E0,7.4800587E-1,-4.0545626E0,-1.8784288E0,1.8468362E-1,9.325519E0,1.1354888E-1,1.5621877E0,7.675732E-1,2.624618E0,-5.5288334E0,5.0116663E0,-4.2564434E-1,-3.7369673E0,4.4129767E-2,-1.1615417E0,-8.2272714E-1,1.1439174E0,6.2321167E0,-3.2618577E0,3.5229838E0,-4.4692892E-1,3.619962E0,-5.171058E0,2.3257324E-1,-3.3600244E-1,-5.053445E0,2.202772E0,-3.681555E-2,-1.4457182E0,1.006586E1,1.007959E0,2.960607E0,-3.3537972E0,-7.691631E0,4.334821E0,-6.824864E-2,8.789905E-1,3.446973E0,-4.699102E-1,-5.038979E0,-2.3875588E-1,-3.8730493E0,8.5317194E-1,-3.1651788E0,-4.998837E-1,-1.182291E1,-2.662784E0,2.9808953E0,-5.7086096E0,-3.098464E-1,1.5461171E0,-2.2227995E0,-4.2958236E-1,4.1638565E0,1.2396591E0,3.9255425E-2,-4.9801655E0],"split_indices":[1,4,3,2,2,0,4,0,5,5,3,4,4,5,5,5,1,5,0,3,0,5,4,0,4,0,3,3,3,2,2,0,5,3,4,0,0,3,3,3,4,0,4,4,0,5,5,2,4,5,4,5,3,4,0,0,3,4,0,4,3,0,0,0,0,0,0,0,0,0,0,0,0,0,0,0,0,0,0,0,0,0,0,0,0,0,0,0,0,0,0,0,0,0,0,0,0,0,0,0,0,0,0,0,0,0,0,0,0,0,0,0,0,0,0,0,0,0,0,0,0],"split_type":[0,0,0,0,0,0,0,0,0,0,0,0,0,0,0,0,0,0,0,0,0,0,0,0,0,0,0,0,0,0,0,0,0,0,0,0,0,0,0,0,0,0,0,0,0,0,0,0,0,0,0,0,0,0,0,0,0,0,0,0,0,0,0,0,0,0,0,0,0,0,0,0,0,0,0,0,0,0,0,0,0,0,0,0,0,0,0,0,0,0,0,0,0,0,0,0,0,0,0,0,0,0,0,0,0,0,0,0,0,0,0,0,0,0,0,0,0,0,0,0,0],"sum_hessian":[2.8709E4,1.9293E4,9.416E3,9.686E3,9.607E3,3.647E3,5.769E3,1.999E3,7.687E3,1.888E3,7.719E3,1.9E1,3.628E3,2.347E3,3.422E3,1.875E3,1.24E2,6.762E3,9.25E2,1.72E3,1.68E2,6.917E3,8.02E2,1E0,1.8E1,2.936E3,6.92E2,2.323E3,2.4E1,1.767E3,1.655E3,1.74E3,1.35E2,1.07E2,1.7E1,6.25E3,5.12E2,4.7E1,8.78E2,1.194E3,5.26E2,3.1E1,1.37E2,3.8E1,6.879E3,5.8E1,7.44E2,1E1,8E0,1.3E1,2.923E3,1.06E2,5.86E2,4.42E2,1.881E3,6E0,1.8E1,6.26E2,1.141E3,8.62E2,7.93E2,1.8E2,1.56E3,1.2E1,1.23E2,6.4E1,4.3E1,1.4E1,3E0,5.969E3,2.81E2,4.06E2,1.06E2,3.8E1,9E0,8.5E2,2.8E1,9.78E2,2.16E2,1.41E2,3.85E2,4E0,2.7E1,1.15E2,2.2E1,3.3E1,5E0,9.96E2,5.883E3,1.3E1,4.5E1,1E2,6.44E2,9E0,1E0,7E0,1E0,1E1,3E0,4.9E2,2.433E3,5.8E1,4.8E1,1.7E1,5.69E2,1.9E1,4.23E2,6.4E1,1.817E3,4E0,2E0,5E0,1.3E1,3.08E2,3.18E2,1.92E2,9.49E2,7.5E1,7.87E2,7.75E2,1.8E1],"tree_param":{"num_deleted":"0","num_feature":"6","num_nodes":"121","size_leaf_vector":"1"}},{"base_weights":[-4.2238613E-4,-8.943681E-2,1.4969652E0,-9.976022E0,-7.298996E-2,1.8454422E0,-5.284202E0,-1.3823648E1,1.7337496E1,-6.722636E-2,-1.9551357E1,1.5091302E0,1.3748581E1,-1.4919877E1,6.028869E-1,2.3817978E0,-1.7333344E1,-3.2234786E0,2.5102966E1,-7.438588E-2,1.482811E1,3.534181E0,-7.7130895E0,-1.868041E1,1.6168792E0,1.718614E1,-9.741128E0,-1.7845142E1,5.206766E0,-3.2525723E0,8.825505E0,-5.6166654E0,1.878865E1,-1.9128098E1,6.990233E0,1.7640182E0,8.531604E0,-1.4112724E-2,-1.7815653E0,2.2286067E0,4.8915205E0,4.5068417E0,-9.725586E0,6.7487674E0,1.4743271E0,2.6648033E1,1.3193101E1,-8.699037E0,5.754038E0,5.000351E0,-2.1861073E1,-6.328648E0,1.4350219E1,8.043094E0,-1.9946984E0,-3.7857509E0,-8.150927E0,-3.720714E0,6.866319E0,-2.2417227E-2,1.6380733E0,-1.520703E0,-1.5309356E-1,5.0945574E-1,-1.6104181E0,9.329938E0,-2.0126674E0,-1.483802E0,6.2088137E0,3.992913E0,-4.235563E0,-3.0574887E0,-8.117645E0,-7.036188E-2,-5.549648E0,-1.4331254E0,6.886967E0],"categories":[],"categories_nodes":[],"categories_segments":[],"categories_sizes":[],"default_left":[0,0,0,0,0,0,0,0,0,0,0,0,0,0,0,0,0,0,0,0,0,0,0,0,0,0,0,0,0,0,0,0,0,0,0,0,0,0,0,0,0,0,0,0,0,0,0,0,0,0,0,0,0,0,0,0,0,0,0,0,0,0,0,0,0,0,0,0,0,0,0,0,0,0,0,0,0],"id":10,"left_children":[1,3,5,7,9,11,13,15,17,19,21,23,25,27,29,31,33,-1,35,37,39,-1,-1,41,43,45,47,49,-1,51,-1,-1,53,55,57,-1,-1,59,61,-1,-1,-1,-1,-1,63,65,67,-1,-1,69,71,73,75,-1,-1,-1,-1,-1,-1,-1,-1,-1,-1,-1,-1,-1,-1,-1,-1,-1,-1,-1,-1,-1,-1,-1,-1],"loss_changes":[3.8268633E3,4.4058154E3,3.8166753E3,4.9688174E3,3.0361477E3,6.116106E3,4.4903555E3,2.316331E3,1.5781691E3,2.8857046E3,1.846656E3,3.2759038E3,3.5587974E3,3.1421733E3,5.6505273E3,3.121769E3,1.5743193E3,0E0,1.5338916E2,2.7820034E3,2.0947021E1,0E0,0E0,4.1911924E3,4.38671E3,1.0463535E3,3.8975488E3,2.6781973E3,0E0,2.5274558E3,0E0,0E0,1.1985221E3,1.2797607E3,1.2087443E3,0E0,0E0,8.665911E3,3.8506123E3,0E0,0E0,0E0,0E0,0E0,2.2699458E3,1.6936143E3,3.9130708E3,0E0,0E0,9.822423E2,1.1799424E3,2.8881501E3,1.2619777E3,0E0,0E0,0E0,0E0,0E0,0E0,0E0,0E0,0E0,0E0,0E0,0E0,0E0,0E0,0E0,0E0,0E0,0E0,0E0,0E0,0E0,0E0,0E0,0E0],"parents":[2147483647,0,0,1,1,2,2,3,3,4,4,5,5,6,6,7,7,8,8,9,9,10,10,11,11,12,12,13,13,14,14,15,15,16,16,18,18,19,19,20,20,23,23,24,24,25,25,26,26,27,27,29,29,32,32,33,33,34,34,37,37,38,38,44,44,45,45,46,46,49,49,50,50,51,51,52,52],"right_children":[2,4,6,8,10,12,14,16,18,20,22,24,26,28,30,32,34,-1,36,38,40,-1,-1,42,44,46,48,50,-1,52,-1,-1,54,56,58,-1,-1,60,62,-1,-1,-1,-1,-1,64,66,68,-1,-1,70,72,74,76,-1,-1,-1,-1,-1,-1,-1,-1,-1,-1,-1,-1,-1,-1,-1,-1,-1,-1,-1,-1,-1,-1,-1,-1],"split_conditions":[1.8455716E0,-2.294249E0,8.8358563E-1,6.788455E-1,5.1580935E0,7.494503E-1,1.021473E0,-1.6475433E0,-5.5438244E-1,3.4886575E0,-1.6475433E0,-1.6475433E0,2.6445646E0,6.1685646E-1,2.8084657E0,-1.9458728E0,2.285394E0,-3.2234786E0,-1.3640754E0,2.0221004E0,1.2901531E0,3.534181E0,-7.7130895E0,-1.4319435E0,-1.1420827E0,-3.785806E-1,1.7687738E0,-1.447387E0,5.206766E0,8.295241E-1,8.825505E0,-5.6166654E0,-2.2880161E-1,4.8953995E-1,-2.9751644E-1,1.7640182E0,8.531604E0,1.7923996E0,-1.0431107E0,2.2286067E0,4.8915205E0,4.5068417E0,-9.725586E0,6.7487674E0,2.5480256E0,8.9452523E-1,-6.7826086E-1,-8.699037E0,5.754038E0,2.6445646E0,-9.308243E-1,3.2302985E-1,-2.0164071E-1,8.043094E0,-1.9946984E0,-3.7857509E0,-8.150927E0,-3.720714E0,6.866319E0,-2.2417227E-2,1.6380733E0,-1.520703E0,-1.5309356E-1,5.0945574E-1,-1.6104181E0,9.329938E0,-2.0126674E0,-1.483802E0,6.2088137E0,3.992913E0,-4.235563E0,-3.0574887E0,-8.117645E0,-7.036188E-2,-5.549648E0,-1.4331254E0,6.886967E0],"split_indices":[2,4,3,0,3,3,3,5,3,4,5,5,1,0,2,5,1,0,2,0,5,0,0,4,5,5,5,0,0,4,0,0,1,1,0,0,0,0,2,0,0,0,0,0,5,0,4,0,0,1,4,0,0,0,0,0,0,0,0,0,0,0,0,0,0,0,0,0,0,0,0,0,0,0,0,0,0],"split_type":[0,0,0,0,0,0,0,0,0,0,0,0,0,0,0,0,0,0,0,0,0,0,0,0,0,0,0,0,0,0,0,0,0,0,0,0,0,0,0,0,0,0,0,0,0,0,0,0,0,0,0,0,0,0,0,0,0,0,0,0,0,0,0,0,0,0,0,0,0,0,0,0,0,0,0,0,0],"sum_hessian":[2.8709E4,2.7099E4,1.61E3,4.4E1,2.7055E4,1.532E3,7.8E1,3.9E1,5E0,2.7048E4,7E0,1.491E3,4.1E1,2.9E1,4.9E1,7E0,3.2E1,1E0,4E0,2.7036E4,1.2E1,1E0,6E0,7E0,1.484E3,3.6E1,5E0,2.7E1,2E0,4.4E1,5E0,3E0,4E0,3E1,2E0,1E0,3E0,2.6115E4,9.21E2,3E0,9E0,2E0,5E0,9E0,1.475E3,9E0,2.7E1,3E0,2E0,4E0,2.3E1,3.8E1,6E0,3E0,1E0,1.8E1,1.2E1,1E0,1E0,2.583E4,2.85E2,2.56E2,6.65E2,1.429E3,4.6E1,8E0,1E0,8E0,1.9E1,3E0,1E0,8E0,1.5E1,2.6E1,1.2E1,2E0,4E0],"tree_param":{"num_deleted":"0","num_feature":"6","num_nodes":"77","size_leaf_vector":"1"}},{"base_weights":[1.7838078E-4,-8.032703E-1,1.2767182E-1,-1.6220472E0,8.330234E-1,3.173328E-1,-4.5289442E-1,2.1493158E0,-2.1681042E0,-1.989865E-1,4.360596E0,4.809888E-1,-1.9149735E0,-1.0609477E0,1.2644919E0,-6.187137E-1,6.7974515E0,-2.437135E0,3.748044E0,7.3682246E0,-7.154463E-1,4.7136054E0,-2.2675741E1,-2.2793692E-1,9.5769274E-1,-2.3634932E0,7.3767548E0,-1.7213396E0,1.0236392E-1,1.7655691E0,-6.671113E0,1.0630368E0,-1.2496536E1,1.196492E1,1.7659976E0,-2.7527912E0,2.2787702E0,-5.0113416E0,8.336384E0,1.4129651E1,-5.59306E0,1.9488835E0,-1.8682457E0,1.246763E0,8.219399E0,1.8388768E0,-1.0296214E1,-6.404922E-1,2.2299871E0,7.5744694E-1,5.217833E0,6.719021E0,-2.8316445E0,-8.30051E0,8.982066E0,-1.371115E0,-5.613834E0,6.600675E0,-3.53053E-1,1.1953472E0,5.5590105E0,-2.4768643E0,-1.8975897E1,1.5880859E-1,6.0188174E0,-2.353114E0,-1.0837841E1,4.4171906E0,-2.4462817E0,-4.3323684E0,2.1066337E0,-7.8738886E-1,-3.683163E0,-3.6764E0,1.205541E0,8.535741E-1,-5.0998373E0,2.9215217E0,-3.2147868E0,5.283374E0,-1.8874756E0,9.2036897E-1,-4.136379E0,-1.4748104E0,1.4116156E0,1.0730685E0,-9.257893E-1,6.494992E0,-1.1305468E-1,2.664311E0,-5.2466826E0,-1.1171215E0,-1.1991192E-1,8.9441794E-1,-6.335599E-1,5.522226E-1,-4.1918233E-2,1.0980955E0,3.4579835E0,1.1867161E1,1.1001176E0,-9.005394E-1,5.7731166E0,4.0904746E0,-6.803086E0,-8.5483867E-1,3.4235082E0,-3.59769E-1,-2.3556755E0,-2.2341493E-1,-4.49466E0,-2.1299434E0,2.6734867E0,-2.0140612E0,3.9285213E-2,1.0858419E0,-6.759513E-2,9.920457E0,1.5314869E0,9.409464E-1,-1.9683241E0,-6.589125E0,4.362897E-1],"categories":[],"categories_nodes":[],"categories_segments":[],"categories_sizes":[],"default_left":[0,0,0,0,0,0,0,0,0,0,0,0,0,0,0,0,0,0,0,0,0,0,0,0,0,0,0,0,0,0,0,0,0,0,0,0,0,0,0,0,0,0,0,0,0,0,0,0,0,0,0,0,0,0,0,0,0,0,0,0,0,0,0,0,0,0,0,0,0,0,0,0,0,0,0,0,0,0,0,0,0,0,0,0,0,0,0,0,0,0,0,0,0,0,0,0,0,0,0,0,0,0,0,0,0,0,0,0,0,0,0,0,0,0,0,0,0,0,0,0,0,0,0],"id":11,"left_children":[1,3,5,7,9,11,13,15,17,19,21,23,25,27,29,31,33,35,37,39,41,43,45,47,49,51,53,55,57,59,61,63,65,67,69,71,73,75,77,79,81,83,85,87,89,-1,-1,91,93,95,97,99,101,103,105,107,109,111,113,115,117,119,121,-1,-1,-1,-1,-1,-1,-1,-1,-1,-1,-1,-1,-1,-1,-1,-1,-1,-1,-1,-1,-1,-1,-1,-1,-1,-1,-1,-1,-1,-1,-1,-1,-1,-1,-1,-1,-1,-1,-1,-1,-1,-1,-1,-1,-1,-1,-1,-1,-1,-1,-1,-1,-1,-1,-1,-1,-1,-1,-1,-1],"loss_changes":[2.940995E3,5.2692856E3,2.7285786E3,5.402292E3,4.7771904E3,6.824561E3,6.3734297E3,4.2757764E3,3.653959E3,3.9759626E3,2.941476E3,5.8815215E3,5.335194E3,3.462641E3,6.358035E3,4.188171E3,3.202854E3,3.2678057E3,4.0608806E3,5.7754175E3,2.9276497E3,3.563039E3,1.5521213E3,7.0976074E3,8.873148E3,5.1979517E3,1.5594023E3,3.9116377E3,4.835097E3,3.2423354E3,4.855885E3,1.8550759E3,2.57519E3,3.506163E3,5.553378E3,2.4750264E3,3.5384116E3,3.3448662E3,1.867334E3,3.168037E3,1.6747339E3,5.473001E3,4.4204194E3,4.944065E3,2.6387168E3,0E0,0E0,4.4477266E3,3.2883657E3,9.660986E3,4.5465566E3,5.8681953E3,4.411202E3,2.2013186E3,1.584812E3,2.930457E3,1.0799756E4,3.4510078E3,4.701745E3,4.501952E3,2.279358E3,1.671261E3,1.496959E3,0E0,0E0,0E0,0E0,0E0,0E0,0E0,0E0,0E0,0E0,0E0,0E0,0E0,0E0,0E0,0E0,0E0,0E0,0E0,0E0,0E0,0E0,0E0,0E0,0E0,0E0,0E0,0E0,0E0,0E0,0E0,0E0,0E0,0E0,0E0,0E0,0E0,0E0,0E0,0E0,0E0,0E0,0E0,0E0,0E0,0E0,0E0,0E0,0E0,0E0,0E0,0E0,0E0,0E0,0E0,0E0,0E0,0E0,0E0,0E0],"parents":[2147483647,0,0,1,1,2,2,3,3,4,4,5,5,6,6,7,7,8,8,9,9,10,10,11,11,12,12,13,13,14,14,15,15,16,16,17,17,18,18,19,19,20,20,21,21,22,22,23,23,24,24,25,25,26,26,27,27,28,28,29,29,30,30,31,31,32,32,33,33,34,34,35,35,36,36,37,37,38,38,39,39,40,40,41,41,42,42,43,43,44,44,47,47,48,48,49,49,50,50,51,51,52,52,53,53,54,54,55,55,56,56,57,57,58,58,59,59,60,60,61,61,62,62],"right_children":[2,4,6,8,10,12,14,16,18,20,22,24,26,28,30,32,34,36,38,40,42,44,46,48,50,52,54,56,58,60,62,64,66,68,70,72,74,76,78,80,82,84,86,88,90,-1,-1,92,94,96,98,100,102,104,106,108,110,112,114,116,118,120,122,-1,-1,-1,-1,-1,-1,-1,-1,-1,-1,-1,-1,-1,-1,-1,-1,-1,-1,-1,-1,-1,-1,-1,-1,-1,-1,-1,-1,-1,-1,-1,-1,-1,-1,-1,-1,-1,-1,-1,-1,-1,-1,-1,-1,-1,-1,-1,-1,-1,-1,-1,-1,-1,-1,-1,-1,-1,-1,-1,-1],"split_conditions":[-1.0850056E0,3.2302985E-1,8.5340893E-1,-1.4319435E0,2.4074812E-1,1.2901531E0,7.494503E-1,1.7803172E-2,8.98402E-1,-1.6850401E0,2.1665363E0,-8.021658E-2,2.8084657E0,1.1636031E0,1.524721E0,-1.6041857E-1,-3.476594E-1,1.3806753E0,-4.1441643E-1,7.388468E-1,5.236215E-1,-1.1420827E0,-1.4319435E0,7.487937E-1,1.524721E0,-1.9693059E0,-1.1245933E0,7.29103E-1,-7.22146E-1,1.4137591E0,-8.021658E-2,1.3036917E-1,1.524607E0,1.6518152E0,-2.2722435E-1,1.5670524E0,-2.2013853E0,1.4392662E0,1.5586964E0,2.94511E0,-1.5786408E0,4.5686445E-1,-1.7185041E0,3.6768246E-1,1.4392662E0,1.8388768E0,-1.0296214E1,-1.8446581E0,5.902471E-1,5.460253E-2,4.9273205E-1,-1.306314E0,3.2776496E0,-3.1707454E-1,-9.308243E-1,1.2078816E0,-3.6392916E-2,-8.2882494E-1,-4.0118128E-1,-7.22146E-1,1.444224E0,1.7222154E-1,2.5358565E0,1.5880859E-1,6.0188174E0,-2.353114E0,-1.0837841E1,4.4171906E0,-2.4462817E0,-4.3323684E0,2.1066337E0,-7.8738886E-1,-3.683163E0,-3.6764E0,1.205541E0,8.535741E-1,-5.0998373E0,2.9215217E0,-3.2147868E0,5.283374E0,-1.8874756E0,9.2036897E-1,-4.136379E0,-1.4748104E0,1.4116156E0,1.0730685E0,-9.257893E-1,6.494992E0,-1.1305468E-1,2.664311E0,-5.2466826E0,-1.1171215E0,-1.1991192E-1,8.9441794E-1,-6.335599E-1,5.522226E-1,-4.1918233E-2,1.0980955E0,3.4579835E0,1.1867161E1,1.1001176E0,-9.005394E-1,5.7731166E0,4.0904746E0,-6.803086E0,-8.5483867E-1,3.4235082E0,-3.59769E-1,-2.3556755E0,-2.2341493E-1,-4.49466E0,-2.1299434E0,2.6734867E0,-2.0140612E0,3.9285213E-2,1.0858419E0,-6.759513E-2,9.920457E0,1.5314869E0,9.409464E-1,-1.9683241E0,-6.589125E0,4.362897E-1],"split_indices":[5,0,4,4,2,5,3,3,4,2,2,2,2,5,0,3,0,3,0,3,0,5,4,4,0,0,3,5,2,5,2,1,2,3,0,1,5,4,3,0,5,0,5,0,4,0,0,0,0,0,3,1,0,4,4,1,3,0,2,2,5,5,0,0,0,0,0,0,0,0,0,0,0,0,0,0,0,0,0,0,0,0,0,0,0,0,0,0,0,0,0,0,0,0,0,0,0,0,0,0,0,0,0,0,0,0,0,0,0,0,0,0,0,0,0,0,0,0,0,0,0,0,0],"split_type":[0,0,0,0,0,0,0,0,0,0,0,0,0,0,0,0,0,0,0,0,0,0,0,0,0,0,0,0,0,0,0,0,0,0,0,0,0,0,0,0,0,0,0,0,0,0,0,0,0,0,0,0,0,0,0,0,0,0,0,0,0,0,0,0,0,0,0,0,0,0,0,0,0,0,0,0,0,0,0,0,0,0,0,0,0,0,0,0,0,0,0,0,0,0,0,0,0,0,0,0,0,0,0,0,0,0,0,0,0,0,0,0,0,0,0,0,0,0,0,0,0,0,0],"sum_hessian":[2.8709E4,3.931E3,2.4778E4,2.62E3,1.311E3,1.8677E4,6.101E3,3.31E2,2.289E3,1.015E3,2.96E2,1.7402E4,1.275E3,4.506E3,1.595E3,2.08E2,1.23E2,2.19E3,9.9E1,6.4E1,9.51E2,2.93E2,3E0,6.997E3,1.0405E4,1.217E3,5.8E1,2.874E3,1.632E3,1.501E3,9.4E1,1.83E2,2.5E1,6E1,6.3E1,2.053E3,1.37E2,3.4E1,6.5E1,4.2E1,2.2E1,2.87E2,6.64E2,1.48E2,1.45E2,1E0,2E0,5.992E3,1.005E3,9.939E3,4.66E2,5.9E1,1.158E3,5E0,5.3E1,2.638E3,2.36E2,1.06E2,1.526E3,1.306E3,1.95E2,7.1E1,2.3E1,1.79E2,4E0,2.2E1,3E0,5.3E1,7E0,1.5E1,4.8E1,2.027E3,2.6E1,1.4E1,1.23E2,2.1E1,1.3E1,6.1E1,4E0,3.6E1,6E0,1.1E1,1.1E1,8.2E1,2.05E2,1.21E2,5.43E2,1E1,1.38E2,1.42E2,3E0,4.33E2,5.559E3,8.57E2,1.48E2,4.502E3,5.437E3,3.75E2,9.1E1,4E0,5.5E1,1.15E3,8E0,2E0,3E0,9E0,4.4E1,2.571E3,6.7E1,1.56E2,8E1,1.5E1,9.1E1,1.07E2,1.419E3,4.82E2,8.24E2,2E0,1.93E2,3E1,4.1E1,2E1,3E0],"tree_param":{"num_deleted":"0","num_feature":"6","num_nodes":"123","size_leaf_vector":"1"}},{"base_weights":[-4.6960606E-5,-2.7888565E0,2.9797731E-2,-1.8950729E-1,-6.560577E0,8.451122E-2,-1.4319088E0,-1.0255788E1,1.6419561E0,-9.3258274E-1,-9.131862E0,1.5664544E-2,3.5394268E0,2.2424603E0,-2.1293156E0,3.0850275E0,-1.1397367E1,-1.3515401E-1,1.5076519E1,-3.871068E0,1.6364012E1,-6.696359E0,-7.276267E0,-6.2064625E-2,1.338615E0,-2.5045583E0,4.2371845E0,-8.526941E0,5.020454E0,-7.767508E0,-1.2334282E0,-1.4686983E1,-5.2772903E0,-1.5768433E0,1.652209E1,1.8995564E1,-7.7320876E0,8.351672E0,-7.801942E0,-4.363823E-2,9.835862E0,-8.113279E0,8.324954E0,3.1720085E0,-9.686346E-2,1.1593622E0,1.1008517E1,2.219003E0,-1.2599799E1,4.747266E0,-5.6521635E0,-1.928848E1,6.390242E0,1.5562927E1,1.8705064E0,8.116558E0,-9.642276E0,-1.06901E1,-7.5219786E-1,-2.3634339E-2,-5.343506E0,1.527623E0,-3.5790248E0,5.5002146E0,-8.673287E-1,-3.413237E0,6.134938E0,6.4980636E0,-3.5458193E0,5.8531523E0,-1.3432494E0,-6.052221E0,-1.2219275E0,5.2181296E0,-3.4962082E0,-6.0698223E0,-2.0298557E0,2.8439873E-1,4.372141E0,-6.169731E0,-2.7834006E-2,-5.317031E0,3.7086642E-1,-3.4537392E0,4.290998E0,-1.6553576E0,9.866722E0,-5.7382846E0,7.9245453E0,1.8561615E0,4.1216287E-1,-7.6771307E0,2.8248453E-1,-4.0599575E0,-8.41307E0,4.9138026E0,-2.2097332E0,5.967904E0,3.505693E-1,-2.1015441E0,2.7001498E0,-1.3341105E0,8.732314E0,1.1091305E0,-3.8944147E0,-3.93841E0,3.6286132E0,1.531192E0,-7.561627E-1],"categories":[],"categories_nodes":[],"categories_segments":[],"categories_sizes":[],"default_left":[0,0,0,0,0,0,0,0,0,0,0,0,0,0,0,0,0,0,0,0,0,0,0,0,0,0,0,0,0,0,0,0,0,0,0,0,0,0,0,0,0,0,0,0,0,0,0,0,0,0,0,0,0,0,0,0,0,0,0,0,0,0,0,0,0,0,0,0,0,0,0,0,0,0,0,0,0,0,0,0,0,0,0,0,0,0,0,0,0,0,0,0,0,0,0,0,0,0,0,0,0,0,0,0,0,0,0,0,0],"id":12,"left_children":[1,3,5,7,9,11,13,15,17,19,21,23,25,27,29,-1,31,33,35,37,39,-1,41,43,45,47,49,51,53,55,57,59,61,63,65,67,-1,69,71,73,-1,75,-1,77,79,81,83,85,87,89,91,93,95,97,99,101,103,105,107,-1,-1,-1,-1,-1,-1,-1,-1,-1,-1,-1,-1,-1,-1,-1,-1,-1,-1,-1,-1,-1,-1,-1,-1,-1,-1,-1,-1,-1,-1,-1,-1,-1,-1,-1,-1,-1,-1,-1,-1,-1,-1,-1,-1,-1,-1,-1,-1,-1,-1],"loss_changes":[2.3896497E3,2.979179E3,2.271973E3,3.3537598E3,1.7859097E3,6.51325E3,2.6313677E3,7.7372363E2,3.6787407E3,2.0963777E3,1.9178799E3,2.7610151E3,2.2668345E3,4.949251E3,4.344541E3,0E0,4.6607568E2,3.3160488E3,3.371269E3,1.7467709E3,1.6181283E3,0E0,2.453257E3,2.854372E3,2.569938E3,2.6983462E3,2.4481309E3,5.581342E3,4.321169E3,3.5921758E3,3.382333E3,7.7458325E2,8.195866E2,3.3763333E3,1.4380583E3,1.651898E3,0E0,1.3757856E3,1.1634418E3,1.0125275E3,0E0,1.0875562E3,0E0,6.8327715E3,2.0952896E3,2.1466353E3,2.1681296E3,9.435791E3,5.089542E3,2.2113652E3,3.1793418E3,6.282422E2,2.1818003E3,1.8466196E3,6.5179507E3,3.5578591E3,4.7694023E3,2.1585698E3,7.36543E3,0E0,0E0,0E0,0E0,0E0,0E0,0E0,0E0,0E0,0E0,0E0,0E0,0E0,0E0,0E0,0E0,0E0,0E0,0E0,0E0,0E0,0E0,0E0,0E0,0E0,0E0,0E0,0E0,0E0,0E0,0E0,0E0,0E0,0E0,0E0,0E0,0E0,0E0,0E0,0E0,0E0,0E0,0E0,0E0,0E0,0E0,0E0,0E0,0E0,0E0],"parents":[2147483647,0,0,1,1,2,2,3,3,4,4,5,5,6,6,7,7,8,8,9,9,10,10,11,11,12,12,13,13,14,14,16,16,17,17,18,18,19,19,20,20,22,22,23,23,24,24,25,25,26,26,27,27,28,28,29,29,30,30,31,31,32,32,33,33,34,34,35,35,37,37,38,38,39,39,41,41,43,43,44,44,45,45,46,46,47,47,48,48,49,49,50,50,51,51,52,52,53,53,54,54,55,55,56,56,57,57,58,58],"right_children":[2,4,6,8,10,12,14,16,18,20,22,24,26,28,30,-1,32,34,36,38,40,-1,42,44,46,48,50,52,54,56,58,60,62,64,66,68,-1,70,72,74,-1,76,-1,78,80,82,84,86,88,90,92,94,96,98,100,102,104,106,108,-1,-1,-1,-1,-1,-1,-1,-1,-1,-1,-1,-1,-1,-1,-1,-1,-1,-1,-1,-1,-1,-1,-1,-1,-1,-1,-1,-1,-1,-1,-1,-1,-1,-1,-1,-1,-1,-1,-1,-1,-1,-1,-1,-1,-1,-1,-1,-1,-1,-1],"split_conditions":[-2.2013853E0,-3.6392916E-2,2.285394E0,-1.3186723E0,-3.784855E-1,2.1100574E0,-6.469128E-1,-3.2090068E0,8.8267756E-1,-6.0603505E-1,-1.6850401E0,1.8455716E0,-6.7826086E-1,-1.7604669E0,-3.209239E-1,3.0850275E0,2.8013155E-1,5.1394945E-1,-3.1707454E-1,2.2317782E-1,-9.308243E-1,-6.696359E0,1.524721E0,-1.7185041E0,7.388468E-1,-3.3329177E-1,1.2901531E0,5.871816E-1,-1.3273789E0,1.4810975E0,-1.0431107E0,-9.909882E-1,5.660359E-1,-1.6850401E0,-1.4155159E0,1.8455716E0,-7.7320876E0,-8.2220143E-1,4.1411206E-1,-5.6964046E-1,9.835862E0,1.7803172E-2,8.324954E0,1.1681566E0,-3.1021678E0,-1.6475433E0,-1.4319435E0,-5.179551E-1,9.3803E-1,5.660359E-1,1.4137591E0,2.886599E-1,2.4366684E-1,2.8681786E0,-9.599927E-1,7.29103E-1,-7.22146E-1,1.1001933E0,-8.021658E-2,-2.3634339E-2,-5.343506E0,1.527623E0,-3.5790248E0,5.5002146E0,-8.673287E-1,-3.413237E0,6.134938E0,6.4980636E0,-3.5458193E0,5.8531523E0,-1.3432494E0,-6.052221E0,-1.2219275E0,5.2181296E0,-3.4962082E0,-6.0698223E0,-2.0298557E0,2.8439873E-1,4.372141E0,-6.169731E0,-2.7834006E-2,-5.317031E0,3.7086642E-1,-3.4537392E0,4.290998E0,-1.6553576E0,9.866722E0,-5.7382846E0,7.9245453E0,1.8561615E0,4.1216287E-1,-7.6771307E0,2.8248453E-1,-4.0599575E0,-8.41307E0,4.9138026E0,-2.2097332E0,5.967904E0,3.505693E-1,-2.1015441E0,2.7001498E0,-1.3341105E0,8.732314E0,1.1091305E0,-3.8944147E0,-3.93841E0,3.6286132E0,1.531192E0,-7.561627E-1],"split_indices":[5,3,1,3,0,3,0,5,2,0,2,2,4,0,0,0,0,4,4,3,4,0,0,5,3,5,5,5,0,3,2,0,0,2,0,2,0,4,3,0,0,3,0,0,1,5,4,5,0,0,5,4,4,3,0,5,2,0,2,0,0,0,0,0,0,0,0,0,0,0,0,0,0,0,0,0,0,0,0,0,0,0,0,0,0,0,0,0,0,0,0,0,0,0,0,0,0,0,0,0,0,0,0,0,0,0,0,0,0],"split_type":[0,0,0,0,0,0,0,0,0,0,0,0,0,0,0,0,0,0,0,0,0,0,0,0,0,0,0,0,0,0,0,0,0,0,0,0,0,0,0,0,0,0,0,0,0,0,0,0,0,0,0,0,0,0,0,0,0,0,0,0,0,0,0,0,0,0,0,0,0,0,0,0,0,0,0,0,0,0,0,0,0,0,0,0,0,0,0,0,0,0,0,0,0,0,0,0,0,0,0,0,0,0,0,0,0,0,0,0,0],"sum_hessian":[2.8709E4,3.03E2,2.8406E4,1.8E2,1.23E2,2.7382E4,1.024E3,2.7E1,1.53E2,3.9E1,8.4E1,2.6848E4,5.34E2,1.63E2,8.61E2,1E0,2.6E1,1.36E2,1.7E1,3.4E1,5E0,9E0,7.5E1,2.5359E4,1.489E3,5.5E1,4.79E2,3.3E1,1.3E2,1.17E2,7.44E2,1.6E1,1E1,1.26E2,1E1,1.6E1,1E0,8E0,2.6E1,3E0,2E0,7.4E1,1E0,2.69E2,2.509E4,1.463E3,2.6E1,3.8E1,1.7E1,4.56E2,2.3E1,1.9E1,1.4E1,2.9E1,1.01E2,1.2E1,1.05E2,3.5E1,7.09E2,3E0,1.3E1,4E0,6E0,7E0,1.19E2,1E0,9E0,1.5E1,1E0,4E0,4E0,5E0,2.1E1,1E0,2E0,6E0,6.8E1,2.26E2,4.3E1,4E0,2.5086E4,5E0,1.458E3,3E0,2.3E1,3.1E1,7E0,1.5E1,2E0,3.19E2,1.37E2,5E0,1.8E1,1.3E1,6E0,8E0,6E0,2.2E1,7E0,4.5E1,5.6E1,8E0,4E0,2.1E1,8.4E1,3.2E1,3E0,1.64E2,5.45E2],"tree_param":{"num_deleted":"0","num_feature":"6","num_nodes":"109","size_leaf_vector":"1"}},{"base_weights":[5.2498493E-5,-5.1507604E-1,1.3781124E-1,-6.71801E-1,2.5380347E0,8.653154E0,1.1934676E-1,-6.0806304E-1,-7.798529E0,1.3769385E0,1.5639753E1,-3.6109285E0,1.2298307E1,1.4404956E-1,-4.4720736E0,1.5414312E0,-8.010449E-1,-9.8718195E0,5.709176E0,5.8678017E0,-1.3785126E0,1.8405045E1,-2.9556897E0,6.7572446E0,-1.1090359E1,2.034199E1,3.1839955E0,2.0597684E-1,-1.7610303E0,-1.0623992E1,3.103392E0,6.8656975E-1,8.725634E0,-3.2663434E0,-6.1046284E-1,1.0500612E1,-1.3032181E1,6.9811935E0,-1.7573599E1,-5.5396E0,3.1546004E0,-4.4966497E0,2.0708982E1,-1.9257559E1,5.9748306E0,7.288176E0,9.532132E0,-8.96813E0,1.1020081E1,1.6095267E-1,4.5376296E0,-4.9962955E0,4.3056992E-1,1.1795426E1,-1.4306236E1,-1.0036805E1,6.2464757E0,8.573602E-1,-6.5771466E-1,-5.2201247E0,4.9622054E0,-1.5214723E0,-6.6496894E-2,2.956628E-1,-3.0887613E-1,8.857304E0,-3.3444824E0,-4.365829E0,7.396745E0,8.387603E0,1.8132516E0,3.4414067E0,-8.310802E0,6.4160094E0,-2.0182717E0,-4.9794116E0,1.7451683E0,7.5302167E0,4.9058202E-1,3.7785075E0,-7.999648E0,3.9433663E0,-2.330151E0,5.141201E0,-1.8961757E0,-7.462819E0,1.6655523E0,4.9931183E0,-3.4196296E0,-1.9444836E0,5.3474028E-2,6.816444E0,7.9305583E-1,-5.5894017E0,-1.3458056E0,6.853213E0,-4.4801968E-4,-3.3131688E0,4.668069E0,-2.0215313E0,-7.2078586E0,4.8417437E-1,-4.38227E0,8.318487E-1,5.4380875E0],"categories":[],"categories_nodes":[],"categories_segments":[],"categories_sizes":[],"default_left":[0,0,0,0,0,0,0,0,0,0,0,0,0,0,0,0,0,0,0,0,0,0,0,0,0,0,0,0,0,0,0,0,0,0,0,0,0,0,0,0,0,0,0,0,0,0,0,0,0,0,0,0,0,0,0,0,0,0,0,0,0,0,0,0,0,0,0,0,0,0,0,0,0,0,0,0,0,0,0,0,0,0,0,0,0,0,0,0,0,0,0,0,0,0,0,0,0,0,0,0,0,0,0,0,0],"id":13,"left_children":[1,3,5,7,9,11,13,15,17,19,21,23,25,27,29,31,33,35,-1,37,39,41,-1,-1,43,45,47,49,51,53,55,57,59,61,63,65,67,69,71,73,75,-1,77,79,81,-1,83,85,87,89,91,93,95,97,99,101,103,-1,-1,-1,-1,-1,-1,-1,-1,-1,-1,-1,-1,-1,-1,-1,-1,-1,-1,-1,-1,-1,-1,-1,-1,-1,-1,-1,-1,-1,-1,-1,-1,-1,-1,-1,-1,-1,-1,-1,-1,-1,-1,-1,-1,-1,-1,-1,-1],"loss_changes":[2.0374319E3,2.9004492E3,3.5607302E3,2.6130608E3,4.4813228E3,2.2349275E3,2.5645247E3,2.3710632E3,3.024718E3,3.3862874E3,1.8731621E3,2.5955066E3,2.7211113E3,2.653063E3,5.6720107E3,2.8866545E3,2.4613855E3,3.22729E3,0E0,2.837029E3,3.2241306E3,2.0030273E3,0E0,0E0,1.5088088E3,6.2282324E2,1.9081063E3,4.246614E3,5.0221606E3,5.699852E3,2.3342356E3,2.6442131E3,1.0496634E4,2.0655088E3,3.2573394E3,3.212044E3,2.765732E3,1.7966489E3,1.7887802E3,2.9907852E3,4.409255E3,0E0,1.7180547E3,1.9875852E3,4.9620132E2,0E0,9.5226E2,1.9859697E3,1.7026256E3,2.4773296E3,7.654991E3,1.9063071E3,4.096383E3,1.0317009E3,4.104505E3,6.0935425E2,1.8068239E3,0E0,0E0,0E0,0E0,0E0,0E0,0E0,0E0,0E0,0E0,0E0,0E0,0E0,0E0,0E0,0E0,0E0,0E0,0E0,0E0,0E0,0E0,0E0,0E0,0E0,0E0,0E0,0E0,0E0,0E0,0E0,0E0,0E0,0E0,0E0,0E0,0E0,0E0,0E0,0E0,0E0,0E0,0E0,0E0,0E0,0E0,0E0,0E0],"parents":[2147483647,0,0,1,1,2,2,3,3,4,4,5,5,6,6,7,7,8,8,9,9,10,10,11,11,12,12,13,13,14,14,15,15,16,16,17,17,19,19,20,20,21,21,24,24,25,25,26,26,27,27,28,28,29,29,30,30,31,31,32,32,33,33,34,34,35,35,36,36,37,37,38,38,39,39,40,40,42,42,43,43,44,44,46,46,47,47,48,48,49,49,50,50,51,51,52,52,53,53,54,54,55,55,56,56],"right_children":[2,4,6,8,10,12,14,16,18,20,22,24,26,28,30,32,34,36,-1,38,40,42,-1,-1,44,46,48,50,52,54,56,58,60,62,64,66,68,70,72,74,76,-1,78,80,82,-1,84,86,88,90,92,94,96,98,100,102,104,-1,-1,-1,-1,-1,-1,-1,-1,-1,-1,-1,-1,-1,-1,-1,-1,-1,-1,-1,-1,-1,-1,-1,-1,-1,-1,-1,-1,-1,-1,-1,-1,-1,-1,-1,-1,-1,-1,-1,-1,-1,-1,-1,-1,-1,-1,-1,-1],"split_conditions":[-5.879724E-1,1.6820912E0,-9.7296906E-1,1.4137591E0,1.0691978E0,5.1725205E-2,2.8928673E0,-1.447387E0,1.524607E0,-2.9751644E-1,2.94511E0,-5.179551E-1,1.7687738E0,2.0221004E0,1.4392662E0,5.6171286E-1,-9.599927E-1,-1.5918206E0,5.709176E0,2.8084657E0,9.7346467E-1,1.7687738E0,-2.9556897E0,6.7572446E0,2.4875011E0,2.4875011E0,5.1394945E-1,1.7923996E0,2.4139028E0,-3.6607525E-1,-2.2880161E-1,-1.5743731E-1,-1.0747648E0,-1.135118E-1,-3.476594E-1,-1.9693059E0,3.2776496E0,-1.0747648E0,-8.2882494E-1,-7.22146E-1,-2.420307E-1,-4.4966497E0,8.8267756E-1,-9.307638E-1,2.8084657E0,7.288176E0,7.29103E-1,2.4875011E0,-2.2880161E-1,-9.089499E-1,-9.308243E-1,-7.13844E-1,-1.5786408E0,-1.3970201E0,-1.6041857E-1,2.9168434E0,6.788455E-1,8.573602E-1,-6.5771466E-1,-5.2201247E0,4.9622054E0,-1.5214723E0,-6.6496894E-2,2.956628E-1,-3.0887613E-1,8.857304E0,-3.3444824E0,-4.365829E0,7.396745E0,8.387603E0,1.8132516E0,3.4414067E0,-8.310802E0,6.4160094E0,-2.0182717E0,-4.9794116E0,1.7451683E0,7.5302167E0,4.9058202E-1,3.7785075E0,-7.999648E0,3.9433663E0,-2.330151E0,5.141201E0,-1.8961757E0,-7.462819E0,1.6655523E0,4.9931183E0,-3.4196296E0,-1.9444836E0,5.3474028E-2,6.816444E0,7.9305583E-1,-5.5894017E0,-1.3458056E0,6.853213E0,-4.4801968E-4,-3.3131688E0,4.668069E0,-2.0215313E0,-7.2078586E0,4.8417437E-1,-4.38227E0,8.318487E-1,5.4380875E0],"split_indices":[1,5,3,5,0,5,5,0,2,0,0,5,5,0,4,2,0,3,0,2,4,5,0,0,2,2,4,0,0,4,1,5,4,4,0,0,0,4,0,2,0,0,2,0,2,0,5,2,1,3,4,3,5,0,3,5,0,0,0,0,0,0,0,0,0,0,0,0,0,0,0,0,0,0,0,0,0,0,0,0,0,0,0,0,0,0,0,0,0,0,0,0,0,0,0,0,0,0,0,0,0,0,0,0,0],"split_type":[0,0,0,0,0,0,0,0,0,0,0,0,0,0,0,0,0,0,0,0,0,0,0,0,0,0,0,0,0,0,0,0,0,0,0,0,0,0,0,0,0,0,0,0,0,0,0,0,0,0,0,0,0,0,0,0,0,0,0,0,0,0,0,0,0,0,0,0,0,0,0,0,0,0,0,0,0,0,0,0,0,0,0,0,0,0,0,0,0,0,0,0,0,0,0,0,0,0,0,0,0,0,0,0,0],"sum_hessian":[2.8709E4,6.057E3,2.2652E4,5.762E3,2.95E2,4.8E1,2.2604E4,5.712E3,5E1,2.72E2,2.3E1,1.1E1,3.7E1,2.2484E4,1.2E2,4.7E2,5.242E3,4.7E1,3E0,1.03E2,1.69E2,2.1E1,2E0,2E0,9E0,1.9E1,1.8E1,2.1777E4,7.07E2,6.6E1,5.4E1,4.21E2,4.9E1,3.75E2,4.867E3,6E0,4.1E1,9.9E1,4E0,8.8E1,8.1E1,1E0,2E1,6E0,3E0,1.3E1,6E0,7E0,1.1E1,2.1554E4,2.23E2,2.85E2,4.22E2,9E0,5.7E1,1E1,4.4E1,2.4E2,1.81E2,1.1E1,3.8E1,2.35E2,1.4E2,1.012E3,3.855E3,3E0,3E0,4E1,1E0,3E0,9.6E1,1E0,3E0,3E0,8.5E1,9E0,7.2E1,1.6E1,4E0,1E0,5E0,2E0,1E0,4E0,2E0,3E0,4E0,9E0,2E0,5.5E1,2.1499E4,2E1,2.03E2,9E0,2.76E2,7E0,4.15E2,1E0,8E0,3.3E1,2.4E1,3E0,7E0,3.5E1,9E0],"tree_param":{"num_deleted":"0","num_feature":"6","num_nodes":"105","size_leaf_vector":"1"}},{"base_weights":[1.0900695E-3,-5.754578E-3,7.854869E0,-1.4327684E-1,3.597331E-1,-4.1232657E0,9.075718E0,-8.227568E0,-1.2733763E-1,1.3775446E0,-2.7513045E-1,-3.525226E0,1.6697565E0,1.0949927E1,3.2275357E0,-1.0742344E1,8.162114E0,-9.145145E-1,-3.0417792E-3,1.5288241E0,-1.3223881E1,-3.4977466E-1,9.963253E0,2.2028732E0,3.8000846E0,-8.913567E0,2.960007E0,-4.3151484E0,-1.551267E1,1.7128819E0,-1.2994964E0,-1.2813629E0,1.3619791E-1,1.4627414E0,2.3202932E1,-2.3385876E1,-5.574942E0,-1.5290037E0,3.261736E-1,1.5629314E1,-1.1113367E1,1.4758228E0,-8.9201033E-1,1.858302E0,-5.869407E0,1.7257701E0,-3.883373E0,-5.3910713E0,1.8126029E0,6.076522E-1,-6.3228583E0,-1.7893144E0,-3.5016727E-1,1.9331081E-1,-1.3781353E0,6.9341564E-1,-4.493229E-3,4.9992734E-1,-2.8143818E0,1.3093152E1,-5.635671E-1,-9.85629E0,-4.9966347E-1,-2.6265818E-1,-5.567459E0,-1.8704957E0,-3.4693778E-1,-3.1611505E-1,3.2139927E-1,-1.3204553E0,6.052564E0,-4.4166846E0,-1.8010687E0],"categories":[],"categories_nodes":[],"categories_segments":[],"categories_sizes":[],"default_left":[0,0,0,0,0,0,0,0,0,0,0,0,0,0,0,0,0,0,0,0,0,0,0,0,0,0,0,0,0,0,0,0,0,0,0,0,0,0,0,0,0,0,0,0,0,0,0,0,0,0,0,0,0,0,0,0,0,0,0,0,0,0,0,0,0,0,0,0,0,0,0,0,0],"id":14,"left_children":[1,3,5,7,9,11,13,15,17,19,21,-1,-1,23,25,27,-1,29,31,33,35,37,39,41,-1,43,-1,45,47,49,51,53,55,57,59,61,63,65,67,69,71,-1,-1,-1,-1,-1,-1,-1,-1,-1,-1,-1,-1,-1,-1,-1,-1,-1,-1,-1,-1,-1,-1,-1,-1,-1,-1,-1,-1,-1,-1,-1,-1],"loss_changes":[1.54339E3,1.4418871E3,4.030089E2,2.6848508E3,5.0683013E3,2.8711392E2,2.1675525E2,3.945783E3,2.0355193E3,6.675619E3,3.6955095E3,0E0,0E0,2.2741724E2,6.52194E2,1.128793E3,0E0,2.8718518E3,3.1983535E3,4.2385576E3,2.279208E3,3.8241772E3,4.3534443E3,7.0873E1,0E0,6.0393884E2,0E0,1.6382799E3,1.2739624E3,2.6288625E3,1.5201997E3,1.1261608E4,5.328472E3,6.586638E3,4.6961816E3,2.6188237E3,1.1430122E3,3.0573616E3,3.137247E3,2.6384292E3,5.9140686E1,0E0,0E0,0E0,0E0,0E0,0E0,0E0,0E0,0E0,0E0,0E0,0E0,0E0,0E0,0E0,0E0,0E0,0E0,0E0,0E0,0E0,0E0,0E0,0E0,0E0,0E0,0E0,0E0,0E0,0E0,0E0,0E0],"parents":[2147483647,0,0,1,1,2,2,3,3,4,4,5,5,6,6,7,7,8,8,9,9,10,10,13,13,14,14,15,15,17,17,18,18,19,19,20,20,21,21,22,22,23,23,25,25,27,27,28,28,29,29,30,30,31,31,32,32,33,33,34,34,35,35,36,36,37,37,38,38,39,39,40,40],"right_children":[2,4,6,8,10,12,14,16,18,20,22,-1,-1,24,26,28,-1,30,32,34,36,38,40,42,-1,44,-1,46,48,50,52,54,56,58,60,62,64,66,68,70,72,-1,-1,-1,-1,-1,-1,-1,-1,-1,-1,-1,-1,-1,-1,-1,-1,-1,-1,-1,-1,-1,-1,-1,-1,-1,-1,-1,-1,-1,-1,-1,-1],"split_conditions":[3.3141825E0,4.5686445E-1,-5.879724E-1,-2.294249E0,8.023564E-1,-2.9751644E-1,2.342593E0,2.1665363E0,-1.0850056E0,3.4728036E0,3.5297096E0,-3.525226E0,1.6697565E0,6.2306833E-1,5.6171286E-1,-4.992275E-1,8.162114E0,-1.4319435E0,-1.0747648E0,3.0037355E0,2.6445646E0,-4.0118128E-1,4.4404187E0,1.2078816E0,3.8000846E0,-1.629299E0,2.960007E0,-3.785806E-1,2.6445646E0,2.6445646E0,-1.6654848E0,5.460253E-2,-9.308243E-1,2.285394E0,6.2306833E-1,8.98402E-1,3.3629062E0,-1.17938E0,-2.2880161E-1,-9.308243E-1,-8.021658E-2,1.4758228E0,-8.9201033E-1,1.858302E0,-5.869407E0,1.7257701E0,-3.883373E0,-5.3910713E0,1.8126029E0,6.076522E-1,-6.3228583E0,-1.7893144E0,-3.5016727E-1,1.9331081E-1,-1.3781353E0,6.9341564E-1,-4.493229E-3,4.9992734E-1,-2.8143818E0,1.3093152E1,-5.635671E-1,-9.85629E0,-4.9966347E-1,-2.6265818E-1,-5.567459E0,-1.8704957E0,-3.4693778E-1,-3.1611505E-1,3.2139927E-1,-1.3204553E0,6.052564E0,-4.4166846E0,-1.8010687E0],"split_indices":[4,0,1,4,0,0,5,2,5,3,3,0,0,5,2,3,0,4,4,1,1,2,1,1,0,0,0,5,1,1,1,0,4,1,5,4,1,4,1,4,2,0,0,0,0,0,0,0,0,0,0,0,0,0,0,0,0,0,0,0,0,0,0,0,0,0,0,0,0,0,0,0,0],"split_type":[0,0,0,0,0,0,0,0,0,0,0,0,0,0,0,0,0,0,0,0,0,0,0,0,0,0,0,0,0,0,0,0,0,0,0,0,0,0,0,0,0,0,0,0,0,0,0,0,0,0,0,0,0,0,0,0,0,0,0,0,0,0,0,0,0,0,0,0,0,0,0,0,0],"sum_hessian":[2.8709E4,2.8685E4,2.4E1,2.0843E4,7.842E3,2E0,2.2E1,4E1,2.0803E4,3.012E3,4.83E3,1E0,1E0,1.6E1,6E0,3.8E1,2E0,2.836E3,1.7967E4,2.982E3,3E1,4.796E3,3.4E1,3E0,1.3E1,2E0,4E0,1.7E1,2.1E1,3.62E2,2.474E3,1.764E3,1.6203E4,2.974E3,8E0,1.2E1,1.8E1,1.747E3,3.049E3,2.7E1,7E0,2E0,1E0,1E0,1E0,8E0,9E0,1.9E1,2E0,3.58E2,4E0,6.7E1,2.407E3,1.116E3,6.48E2,1.052E3,1.5151E4,2.92E3,5.4E1,4E0,4E0,8E0,4E0,1.4E1,4E0,1.27E2,1.62E3,1.069E3,1.98E3,5E0,2.2E1,3E0,4E0],"tree_param":{"num_deleted":"0","num_feature":"6","num_nodes":"73","size_leaf_vector":"1"}}]},"name":"gbtree"},"learner_model_param":{"base_score":"4.527082E1","boost_from_average":"1","num_class":"0","num_feature":"6","num_target":"1"},"objective":{"name":"reg:squarederror","reg_loss_param":{"scale_pos_weight":"1"}}},"version":[2,1,2]}